4877 10
7585 -0.5211352 -0.17392771 -0.18547744 -0.5289722 0.15375824 0.048044994 -0.79641235 0.202607 -0.015890243 -0.06117872
859 -0.4999215 -0.03122397 -0.39494085 -0.55287194 0.3382853 0.027699493 -0.79698825 -0.054782923 -0.057577558 -0.041243516
857 -0.6896444 -0.32651845 0.16043049 -0.43328297 -0.2673447 0.079712555 -0.9157972 0.80987036 0.14111234 -0.027599802
7586 -0.014388692 -0.35172638 -0.085627586 -0.22895138 -0.076298684 0.8303525 -0.57023066 0.5535475 0.40767342 0.5503793
856 0.009360164 0.050807472 0.15259881 -0.015089302 -0.019197935 0.858863 -0.85052216 0.7666055 0.541012 0.7552168
7582 -0.10460782 -0.24054915 0.013944848 0.0084904 0.10001409 0.95725965 -0.63779765 0.7433278 0.44974408 0.62405896
858 -0.26967457 -0.6970269 -0.5658812 -0.41660962 -0.3085608 0.67665243 -0.28871334 0.2760809 0.31499982 0.37523445
1134 -0.046313472 -0.13419077 -0.67457414 -1.1074244 0.6365335 -0.42860696 -0.63240105 0.63865876 -0.008776131 -0.1299887
1140 0.12697464 0.7976936 -0.15079796 -0.5164681 0.015062581 0.42387772 -0.8708556 0.3946146 0.539576 0.6199951
1125 -0.1986237 0.077164076 -0.72762394 0.023526814 0.32022104 0.24022354 -1.4453975 0.17319135 -0.21814942 -0.8471679
5671 -0.55335414 0.0067372425 -0.5288027 -0.22819577 -0.061376996 0.5721993 -0.29402614 0.37377223 0.31697324 0.23672205
7581 -0.32480136 -0.18969852 -0.09661359 0.11751424 0.096522816 1.2293421 -0.5182849 0.8186578 0.2857741 0.51639926
5856 -0.33987737 -0.5857922 -0.5807285 -0.2016588 -0.007197814 0.31271845 -0.34279773 0.3886549 0.09164703 0.59835404
5657 -0.52925086 -0.3656999 -0.73286194 -0.18721588 0.02201877 0.17542744 -0.3795521 0.18018785 0.5073184 0.0425214
1127 -0.14893253 -0.35096323 0.42731023 0.36812878 -0.35328728 0.7102781 -1.2111654 0.87620884 0.26656297 0.40132663
1130 -0.33059996 -0.30652392 0.14127725 -0.9681645 -0.55617535 -0.068664886 -1.0766814 0.5927726 0.6713209 -0.22602808
1157 -1.1566396 0.097169325 -0.19686294 -0.95611256 0.66031677 0.6611721 -0.30139554 -0.034883674 0.19759144 -0.59830344
5639 -0.4879932 -0.26091585 -0.54343027 -0.11003503 0.04398079 0.22370645 -0.4815035 0.083920375 0.74902874 0.18698087
5679 -0.43646383 -0.10122778 -0.6865313 -0.029382428 -0.047014583 0.058437053 -0.5945008 0.18537599 0.2677576 0.4863795
1143 -0.70886075 -0.84037733 -0.13547026 -0.89871794 -0.000586672 0.2253997 -0.06573364 0.06496467 0.04944634 0.919196
1145 0.16328572 -0.4520277 -0.6449225 -0.9339762 -0.6433213 0.90346897 -0.5834646 0.051038068 0.14350146 -0.34594145
1142 -0.19523579 -0.7321489 -0.72717035 -0.27007267 -0.25799248 0.48839763 -0.5656337 0.29738313 -0.6497608 0.45420894
5651 -0.46008432 -0.31912875 -0.65454906 -0.040711116 0.046116408 0.13708426 -0.4355306 0.32569852 0.4282531 0.3191106
1144 -0.36692306 -0.7899694 -0.6783354 -0.11867729 -0.038392175 0.017414808 -0.4874146 0.12780304 0.93748206 0.1830192
1128 -0.7401989 0.21868582 -0.4286601 -0.71240294 -1.0400454 -0.23964466 -1.0591326 0.48844257 -0.05063993 0.35592192
855 0.07487245 -0.62718475 0.25551027 -0.30077288 1.0210699 1.2801527 -0.5517912 0.8099773 0.31532565 0.1625919
1161 -0.6435708 -0.34761876 0.056053087 -0.70630854 -0.04156528 0.33190912 -1.2948405 -0.9385318 -0.18535331 0.07453005
1165 -0.5118886 0.09312998 0.3371446 -1.1622934 0.4332303 0.80083585 -0.5822689 0.59298694 -0.6233276 -0.06826118
5625 -0.49736142 -0.16076583 -0.4228135 -0.37409386 0.15969184 0.45294282 -0.22935365 0.50613815 -0.25242046 0.6409502
1136 -0.8860721 -0.27297163 0.48687854 -0.23282926 0.36448616 -0.39870003 -0.9756566 0.9498121 0.29374504 0.66977066
5616 -0.15063539 -0.11826744 -0.5071374 -0.10635724 0.5531644 0.20418788 -0.43053633 0.70388067 0.4303551 0.29408532
1146 0.08488255 -0.4049245 -0.2369064 -0.67145133 0.4572002 -0.34781796 -1.312095 0.19120882 -0.8601573 0.48913312
1156 -0.20455855 -0.5745558 0.48254937 -0.30269283 1.2118508 1.0748024 -0.65841174 0.31417042 0.15458259 -0.08277733
1154 0.20644492 -0.39213872 -0.03148012 -0.16134782 0.8393981 0.9464084 -0.5243764 1.3015705 0.5022585 0.32045415
1139 0.5129619 -0.36274153 0.4311833 -0.4017382 -0.27522174 0.58988565 -1.1325295 0.7062133 0.60833544 1.1108471
1151 -0.5568297 -0.3704168 0.21400945 -0.7888031 0.014629712 0.22393773 -1.2887831 -0.8625969 -0.11337033 0.19283694
1153 0.09621049 -0.38973317 0.44837305 -0.41664833 0.7849535 1.1124914 -0.6554815 0.5913419 0.9975966 0.26307857
5820 -0.5915753 -0.3940083 -0.48522118 -0.06820396 0.67159534 0.32635385 -0.5297478 0.36211792 -0.9032856 0.5112901
1141 -0.33866426 0.40392542 0.29451418 -0.32448426 0.505762 0.7253532 -0.78984016 -0.037597522 1.3411156 0.11452638
1147 0.027992819 -0.3226648 -0.20638187 -0.40556297 0.5625194 -0.61760366 -1.5260248 -0.19647276 0.18376201 0.1397388
1162 -0.5809985 -0.33475372 -0.3890752 0.067524046 0.15709673 0.45982954 -1.4458919 -0.5156437 -0.29874492 -0.5452167
1164 -0.9458541 -0.26649833 0.37381396 -0.90095377 -0.12830183 0.7135726 -0.74784535 0.6843668 -0.57180345 -0.12616804
1181 -0.26581615 -0.60795605 -0.5908581 -0.20214553 -0.17679252 0.5606141 -0.2899938 0.5810915 0.5843893 0.41873145
1129 -1.0824802 0.2014934 -0.05179895 -0.4050368 0.009127023 0.23382881 -0.61986846 0.8481293 1.017558 -0.5506211
1180 -0.48112875 -0.44243482 -0.6224091 -0.15450805 -0.10461671 0.7173739 -0.20234536 0.5041158 0.43219373 0.4475221
1166 -0.9728044 0.6733892 -0.5414549 -1.0021672 -0.6371526 0.322069 -0.6146405 0.08037581 -0.429665 0.3641816
1126 -0.6385425 -0.04605377 0.13759619 -0.6421973 -0.12012366 0.1936174 -0.8877361 0.77911246 1.052511 -0.62567914
1167 0.49035728 -0.058279656 0.1864154 -0.32158118 -0.09769094 0.7756894 -1.1302977 0.51734626 0.40734407 1.0050948
1172 -0.37759793 0.32142693 0.036603455 -0.2161017 -0.05406654 0.9928954 -0.48106793 0.7649747 0.6016866 0.97610307
1170 0.08641512 0.11824758 -0.12667687 0.09447252 -0.009026238 0.80644524 -1.0218886 0.39184496 0.34462863 0.9563256
1179 -0.43526202 -0.42755008 -0.69733655 0.05164667 -0.17481802 0.69609404 -0.40095568 0.38292626 0.1922199 0.5905375
1178 0.12048189 -0.53600067 0.16294594 -0.28624263 1.0039574 1.1281185 -0.52986646 0.836867 0.5075147 0.277897
5756 -0.567121 0.13487273 -0.6024363 0.060602568 0.7393823 0.27851832 -0.4461828 0.90449315 -0.5098279 0.25343502
1168 0.23790297 -0.58733064 0.32922605 0.060022697 -0.20457011 0.6235333 -1.0962292 0.752273 0.53981626 1.0135033
1169 -0.26781487 -0.2908963 0.2960325 0.3783081 -0.21439572 1.1114796 -1.008629 0.6192223 0.3587498 0.8134449
1171 -0.47088772 0.0884732 0.066876575 0.41523594 -0.34234208 1.4474543 -0.8756837 0.78191864 0.34049383 0.47743526
1173 0.1680582 -0.15161927 -0.3044656 0.3224432 -0.03149316 0.9141 -0.83141285 1.4554597 0.27838838 0.36229876
1174 -0.10148123 0.30867103 0.001025686 -0.52125883 -0.0011437348 0.9166422 -0.34408498 1.2689086 0.62571913 0.91287756
1135 0.2956054 -0.38902792 -0.5021655 -0.9086001 0.54047245 -0.49419004 -1.1836865 0.2711974 -0.51785624 0.23157041
1132 -0.56584203 0.2515734 0.0067843464 -1.5153681 0.39057678 -0.36393067 -0.6663009 -0.18731958 0.55561876 0.5065234
1131 -0.15713477 -0.031114554 0.2608225 -0.69653755 -0.06733296 0.57043874 -0.8425702 1.2196449 -0.4684469 0.04459649
1163 -1.5306411 -0.23937151 0.2061851 -0.5668774 -0.69463474 0.553074 -0.6970507 0.31225786 -0.03777682 0.05413866
1138 -0.53878236 -1.1570632 0.18316825 -0.83475167 -0.20862551 -0.059633203 -0.8795843 0.6203692 0.31771144 -0.23448476
1177 0.12404303 -0.61998725 0.15472011 -0.21295665 1.0067182 1.276453 -0.624183 0.8952061 0.11210609 0.29863155
1175 0.10673392 -0.69459176 0.15657075 -0.18607847 0.97850794 1.3156719 -0.61695457 0.8807709 0.09869181 0.22570999
1176 0.09234967 -0.67334706 0.1519094 -0.18395115 1.0033963 1.274293 -0.59638005 0.9188576 0.07587751 0.20978661
1150 -0.27640167 -1.0967646 0.013359183 -0.8209528 0.8078103 -0.07044748 -1.0333956 -0.44724998 0.22040962 -0.30626452
1160 -0.3359943 0.69625896 -0.7723403 -0.1852557 0.16683176 0.5134274 -1.2174512 0.34362346 -0.19447054 -0.8000808
1133 -0.34697598 0.16920121 -0.16336325 -1.5908802 0.44468117 -0.40744033 -0.59186906 0.010647347 0.4796203 0.39253455
1323 -0.578349 0.13336684 0.34386992 -1.2591534 0.41659418 0.75879455 -0.65739834 0.5820364 -0.66638976 -0.08349808
1155 0.063287504 -0.6684774 0.2511357 -0.36359915 1.0221698 1.3624942 -0.5165138 0.85513926 0.09971861 0.1715296
1317 -0.3281702 0.3735137 0.287757 -0.34356233 0.45663348 0.7263733 -0.7742234 0.04099579 1.390989 0.030274792
1186 -0.60267454 -0.50088775 -0.6949159 0.04924274 -0.17566971 0.9141838 -0.23190391 0.49979186 0.35441068 0.3754249
1318 0.24721272 0.7887199 -0.12263593 -0.46607664 0.020460388 0.36830008 -1.1195524 0.21035333 0.26308385 0.6717578
1121 -0.495938 -0.6449042 -0.44161633 -0.22450967 -0.41955703 1.2915883 -0.21292375 0.5413986 0.40399083 0.22738723
1207 0.11421299 -0.63986915 0.15135856 -0.2123955 0.9492755 1.3792837 -0.62149936 0.88086927 0.25314322 0.2740366
1119 -0.36692917 -0.2827341 0.28435722 0.31491974 -0.16073003 1.1451172 -0.91824013 0.56714463 0.34706035 0.9524083
1124 0.049085367 -0.5888142 0.2046107 -0.23856291 1.0232191 1.3188622 -0.6197931 0.70339364 0.08046487 0.2577209
1123 0.21081826 -0.098075815 -0.38493532 0.32429317 0.12840334 0.99240613 -0.8469788 1.4511431 0.25279033 0.38883227
1190 -0.51639473 -0.5807665 -0.82126606 0.08335169 0.010204712 -0.071488276 -0.59691876 0.069070645 0.8991704 0.06938629
1192 -0.6278512 -0.739067 -0.60704744 -0.090174034 0.15923108 -0.07414781 -0.43976945 0.07505792 0.80314624 0.2345822
1211 0.3118613 -0.08772114 -0.39473534 0.15732244 0.3677448 0.8089554 -0.7344714 1.585058 0.34120357 0.42192072
1120 -0.10796911 -0.004509136 -0.093136705 0.38499692 0.052153513 1.0541648 -1.0755358 0.38948676 0.23762482 0.91386443
1306 -0.66027814 0.22979215 0.11434107 0.28548843 -0.22816785 1.6525468 -0.73639053 0.62300175 0.32402223 0.6467313
1122 -0.5835775 -0.4386895 -0.59167707 -0.012660912 -0.081566386 0.6563002 -0.23598692 0.49076065 0.43836233 0.5283129
1148 -0.24865513 -0.37393802 -0.040017877 -0.4345443 0.8941475 -0.3978308 -1.1920389 -0.13923593 0.7381918 -0.17752339
1118 -0.5482567 0.1647494 0.06492448 0.33675525 -0.29702523 1.5458407 -0.7902204 0.7302262 0.3558302 0.49641392
2917 -0.26134592 -0.5535563 -0.7317859 0.02534457 -0.12576547 0.2809044 -0.5787871 0.3271436 -0.016366731 0.46542737
1322 -0.6990638 -0.73480135 -0.13498133 -1.0642632 0.023845395 0.32265517 0.06125197 0.19513868 0.05303907 0.9535171
2902 -0.31558433 -0.55717635 -0.67801565 -0.05423157 0.018928925 0.25067577 -0.39005473 0.44316489 0.5861014 0.28858742
1116 -0.11487616 0.07783327 -0.09374146 -0.303532 0.22662249 0.90799147 -0.3001048 1.5282657 0.6341805 0.7858336
1117 -0.5604378 0.18934788 0.21360594 -0.2770684 -0.14845388 1.4461397 -0.43551508 0.7216241 0.4354634 0.96989226
1319 -0.097194634 -0.49096435 0.46265933 0.36081928 -0.3712046 0.6994584 -1.2962601 0.795578 0.3030625 0.3026782
2914 -0.43895653 -0.3400089 -0.60745174 0.01927956 -0.05572888 0.6710205 -0.34574372 0.48532796 0.39831585 0.43169197
1158 -0.6444098 0.94746643 -0.75276065 -0.542969 0.08837653 0.55903417 -0.98117846 0.21745394 0.07007839 -0.811101
1321 0.18208243 -0.5123456 -0.6155337 -0.99159616 -0.60694903 1.0364575 -0.5470307 0.052487336 0.13849789 -0.36280772
823 -0.30595115 -0.57824564 -0.714928 -0.08979785 -0.12495741 0.1590603 -0.60923195 0.26506603 -0.32675067 0.5571864
1364 0.16174063 -0.4803974 -0.12096538 -0.08117495 0.945778 0.9614522 -0.53411466 1.1294168 0.29348743 0.28046334
1366 0.06405606 -0.56594247 0.13084495 -0.2602659 0.8891287 1.176109 -0.5170294 0.8591274 0.09194888 0.4141011
1159 -0.5376154 0.96239156 -0.7948706 -0.49951655 0.04517215 0.62212473 -1.0260885 0.2361765 -0.11690014 -0.7652145
1320 0.13443473 -0.44597548 0.39672115 -0.44070488 0.7359613 1.162034 -0.57432073 0.9401764 0.94062585 0.38698176
1208 0.31982282 -0.22948027 -0.32455796 0.2523223 0.035912693 0.8658643 -0.87234956 1.5325531 0.27426556 0.37098134
1215 0.069963545 0.014074344 -0.17628343 -0.25326672 0.36654642 0.8967944 -0.38917914 1.5741035 0.7106096 0.5659418
2901 -0.29129758 -0.52132964 -0.66981715 -0.01822359 -0.015715405 0.30992833 -0.4931601 0.3711282 0.0013339596 0.520091
1307 -0.48292387 0.0439828 0.1818483 0.42941284 -0.36394563 1.475818 -0.9366606 0.7411579 0.41197506 0.53057516
2897 -0.38137028 -0.30751747 -0.5377017 -0.01639697 -0.015519131 0.5713772 -0.41028017 0.42990503 0.2965591 0.4572295
828 -0.32884127 0.16030282 0.26984125 -0.36144158 0.60099024 0.6274288 -0.78175 -0.11981647 1.2934371 -0.048930656
1302 -0.67681235 0.285351 0.21063331 -0.13505559 -0.11169193 1.4975563 -0.4488772 0.72951317 0.39751786 0.8731013
2913 -0.4601357 -0.4019836 -0.56782347 0.0022553643 0.040623304 0.6558233 -0.31111193 0.48023748 0.3454954 0.47056141
820 -0.5107395 -0.6932532 -0.6991054 -0.2685992 0.027789153 0.19054848 -0.42704257 0.32336494 -0.68120843 0.6086779
2869 -0.4635605 -0.67811346 -0.6147277 -0.32331344 0.006332514 0.37508062 -0.32920888 0.26822233 -0.4609048 0.75469834
1212 0.12675375 0.06316556 -0.3705043 0.006383843 0.48087662 0.8308003 -0.49633795 1.6862437 0.40720573 0.48852223
1210 0.22098166 0.02094998 -0.48961636 0.23981535 0.08470954 0.7947775 -0.7452607 1.6088825 0.36303753 0.48310754
1305 -0.64132184 0.2516392 0.10256397 0.24831167 -0.22241883 1.5744056 -0.6783987 0.7711443 0.26976565 0.64304805
2928 -0.48364207 -0.42830274 -0.63354367 -0.0052855653 -0.11155033 0.7101893 -0.29239848 0.49644655 0.40152505 0.4159588
1303 -0.7825457 0.32604554 0.18172252 0.046185855 -0.14301446 1.5955831 -0.52610147 0.6901206 0.21099365 0.8389917
1152 -0.643009 -0.28156263 0.25626162 -0.7818404 -0.010098543 0.407112 -1.3208356 -0.92203444 -0.23143347 0.14721492
851 -0.25331742 -0.650051 -0.73152775 -0.25342968 -0.13455167 0.4594633 -0.5170976 0.37277472 -0.7237118 0.46634433
2926 -0.3921168 -0.38136247 -0.49439254 -0.123198345 -0.018130405 0.5791854 -0.30801556 0.5099784 0.3251221 0.54175663
822 -0.34523502 -0.4969413 -0.73086804 -0.14415658 -0.13977426 0.18250974 -0.5223183 0.3396522 -0.28397715 0.48979402
2911 -0.39097294 -0.36853617 -0.4881038 -0.033163518 0.00243124 0.61397904 -0.3564004 0.49752155 0.36614582 0.4719852
2898 -0.42375344 -0.32321852 -0.53336746 -0.0673185 -0.08784462 0.5495615 -0.37043637 0.47031686 0.3124866 0.57817376
1191 -0.28752667 -0.79952747 -0.67908746 0.028763432 0.08332424 -0.061205257 -0.68121034 0.08720635 0.992439 0.006636846
1418 -0.22679915 0.468934 -0.3537547 -0.13875657 -0.07261386 0.5336266 -0.6226443 0.43735152 0.6736765 0.65637594
4973 -0.111404486 -0.2528027 -0.67112726 -0.7978837 -0.5319915 0.7425026 -0.46767038 0.121536426 0.31513953 -0.37099227
1385 -0.012124255 -0.65710413 0.23438181 -0.18545215 0.993854 1.3387852 -0.5984198 0.704676 0.12669586 0.18565132
849 -0.2741905 -0.6140173 -0.6622926 -0.32594335 -0.14663507 0.4144253 -0.512271 0.42010006 -0.836371 0.51604855
844 -0.5941914 0.164664 0.3287617 -1.232588 0.37906206 0.77987176 -0.6243272 0.56780773 -0.67521626 -0.039154023
821 -0.43513352 -0.65471435 -0.66097564 -0.21881166 0.010987783 0.27920043 -0.45835623 0.3232436 -0.6191122 0.6051824
538 -0.41733548 0.29592004 0.15625542 -0.34909025 0.3271879 0.57748497 -0.70976365 -0.031982165 1.3189193 0.04283042
537 -0.42685518 0.12838402 0.19379129 -0.31279588 0.4042072 0.6445421 -0.68960387 -0.07713525 1.2798451 0.04377889
842 -0.48629376 0.14281803 0.2965755 -1.2003486 0.37988138 0.75722826 -0.64042073 0.6081782 -0.68147415 -0.05995793
3115 -0.35818636 -0.6154216 -0.7165681 0.07228081 0.10769056 0.080395386 -0.55633736 0.15394956 0.869828 0.21069403
487 -0.9692116 0.38942152 -0.49079925 -0.77432764 -0.95327955 -0.015598187 -0.8853301 0.31867418 -0.27413028 0.39750284
1396 0.30299094 -0.5029004 -0.030660212 -0.074927986 0.75615716 1.1856866 -0.7062629 1.0928714 0.23444158 0.22274633
1417 -0.13460384 0.58550787 -0.2649513 -0.31134441 -0.10705573 0.568448 -0.6014587 0.63403624 0.6371387 0.6674318
824 -0.19773003 -0.69616103 -0.7559288 -0.07578587 -0.1892864 0.3304113 -0.64623225 0.30235896 -0.53836375 0.5209433
1340 0.14738561 -0.27339357 -0.037416525 -0.27991343 0.8734126 0.87688124 -0.4415799 1.1439252 0.7630126 0.33602953
2885 -0.3975448 -0.6495812 -0.6432196 -0.123334005 0.019787915 0.41288006 -0.4087104 0.3675357 -0.46995756 0.6604282
1218 -0.79930884 -0.25924158 -0.86617446 0.09623087 0.07855758 -0.13796298 -0.60547847 0.037024345 0.8328073 -0.0695751
1805 -0.27031815 0.6335036 0.10543053 -0.39430812 0.18299125 0.8057273 -0.71520025 0.1328586 1.0773209 0.22756033
2929 -0.5138113 -0.3129433 -0.5888778 0.05566511 -0.08733687 0.7525176 -0.337935 0.42721677 0.45222992 0.46754083
1374 0.08638683 -0.5648793 0.14328602 -0.20466822 0.9847075 1.2909375 -0.579369 0.85544527 0.18169852 0.3449385
1365 0.0012553611 -0.58041805 0.042881835 -0.18996072 0.98784596 1.003888 -0.4493866 0.97907275 0.18947333 0.4133494
1372 0.25550994 -0.5032721 -0.07983691 -0.14853519 0.8691759 1.0734731 -0.5649784 1.2139851 0.28501958 0.27799925
826 -0.42445773 0.27282003 0.17577866 -0.3356247 0.4132678 0.5937689 -0.7312448 -0.10612209 1.3214377 0.06083724
1419 -0.2593779 0.4512916 -0.25046617 -0.13298218 -0.047121342 0.50322866 -0.6401315 0.45673156 0.5962583 0.69596106
1414 -0.084500745 0.574958 -0.11117536 -0.5252274 0.04996725 0.63341725 -0.47887352 0.8770101 0.4000379 0.8663992
2919 -0.26791283 -0.5215698 -0.6201396 -0.17110558 0.03490966 0.33878487 -0.35158283 0.4327445 0.5791679 0.36186242
2916 -0.3309119 -0.4423149 -0.6256964 -0.021624496 -0.07060572 0.47509256 -0.45544466 0.34802043 0.18448137 0.5256469
1216 -0.6747762 -0.46337497 -0.7425217 -0.034533568 0.12441107 -0.28357157 -0.67095435 -0.032020282 0.82435554 0.047883205
2903 -0.24952252 -0.5298908 -0.60810477 -0.13867009 -0.031044861 0.4076738 -0.36656207 0.4805663 0.5384341 0.39274994
2930 -0.45245567 -0.34997964 -0.5622324 0.085758746 -0.12698185 0.7723236 -0.38784403 0.51426846 0.37572244 0.5024904
1206 -0.96966606 0.36915946 0.026016403 -0.13359474 1.1004103 -0.44432956 -1.0828904 0.06068896 0.3479483 0.42900985
848 -0.2211629 -0.6678171 -0.6670739 -0.22425802 -0.11394448 0.4705012 -0.603421 0.3594922 -0.8349668 0.4773442
1684 0.24689874 -0.2577023 -0.22047795 0.10951246 0.41288605 0.94330597 -0.7304085 1.3072616 0.27983126 0.4099187
1648 -0.5267697 0.15078132 -0.042518042 0.14431655 -0.11630517 1.2391224 -0.57939744 0.6437095 0.21935555 0.5710599
1795 0.023580335 0.68550164 -0.36914143 -0.28525808 0.2343995 0.30597624 -0.651449 0.79084116 0.5620371 0.64527035
727 -0.4934162 -0.67527974 -0.65232813 -0.24784026 0.13272958 0.2554235 -0.41947943 0.2704126 -0.63799083 0.61051965
42 0.06180017 0.68524307 -0.2881259 -0.42274612 -0.08502994 0.19912754 -0.9899354 0.2081482 0.33264947 0.5465886
1205 -0.99296194 0.010725515 -0.20267093 0.3458684 0.67269504 -0.25973925 -1.1356535 -0.11415621 0.015587518 0.46174663
2918 -0.29007122 -0.62575614 -0.6225695 -0.13273539 0.023514532 0.21565832 -0.3940112 0.36579397 0.6697278 0.3275958
2927 -0.47111607 -0.3797456 -0.52594113 -0.0021610237 -0.06082819 0.6142499 -0.32119468 0.52461 0.48916906 0.4229406
542 -0.39321604 0.70431894 0.041772924 -0.47455773 0.11324948 0.5971462 -0.7055137 0.03669042 0.95810735 0.23500095
45 0.19374527 0.85237104 -0.10225373 -0.54699814 0.0013093773 0.35821825 -1.0878991 0.22366436 0.21228859 0.61831605
1204 -0.8712801 0.3099847 -0.17084515 -0.10241879 0.9344174 -0.6292554 -1.1466275 -0.023229636 0.56552494 0.41757154
1644 0.034400024 -0.11399833 -0.39751935 0.20651357 0.1746362 0.84167075 -0.62309504 1.3520895 0.15767325 0.4579605
4976 0.1471336 -0.3528076 -0.592382 -1.0170296 -0.5404301 0.87225914 -0.6525862 0.050485887 0.09405944 -0.5739767
2896 -0.41624647 -0.36365917 -0.5883308 -0.012238498 -0.10202037 0.64044887 -0.34216875 0.5040109 0.3828071 0.49104214
1196 -1.3203791 0.32338172 -0.4881247 -0.12990059 0.4540875 -0.11354527 -0.708184 0.034239125 -0.3755805 0.5441953
846 -0.18769056 -0.7194507 -0.7122691 -0.12052915 -0.15161468 0.41233426 -0.6909869 0.32581598 -0.83299357 0.43702918
1549 -0.19088206 0.06222142 -0.123306066 0.26022416 0.042122494 0.9021439 -0.8671262 0.4629018 0.29999435 0.70118624
480 -0.70680475 0.28450853 -0.5844379 -0.6314657 -1.0391515 -0.3105541 -1.172225 0.31309426 -0.16954492 0.42004067
827 -0.37426284 -0.043245375 0.44245958 -0.3254509 0.8277621 0.7402018 -0.778251 -0.11481492 1.05254 -0.09794864
731 -0.29525593 -0.55137974 -0.75802976 -0.11202881 -0.1929344 0.17436758 -0.5846104 0.27182958 -0.2716336 0.54028684
2912 -0.44024727 -0.4082862 -0.54684436 0.0024838634 -0.04931288 0.71441686 -0.34706014 0.45988503 0.42080733 0.44789633
1623 -0.008028899 0.041731063 -0.36910963 0.1610482 0.2868578 0.69214773 -0.5627841 1.4745897 0.1346239 0.5215383
30 -0.08351185 0.71180296 -0.32650313 -0.5326118 0.20868815 0.17326404 -0.57803947 0.67582107 0.35710332 0.6163603
1388 0.30520502 -0.5770437 0.11516938 -0.13189591 0.78320646 1.1472535 -0.7224163 1.0834507 0.18344441 0.32033187
771 -0.43643692 -0.48958594 -0.64661926 -0.019620877 0.03780109 0.026694201 -0.5265285 0.17797571 0.8291738 0.16255267
1691 -0.46835086 0.069159105 0.047346197 0.35130197 -0.19369015 1.5047473 -0.8182796 0.6880253 0.39672273 0.53104395
853 -0.0055502537 -0.56917256 -0.7031399 -0.60026705 -0.3384874 0.5975266 -0.61862946 0.20062834 -0.6535552 0.13542987
852 -0.0801459 -0.62964594 -0.7833151 -0.4848722 -0.32280177 0.50738853 -0.6086279 0.22477283 -0.70902175 0.19316247
159 -0.94221157 0.4374556 -0.5197889 -0.786868 -0.866757 0.02282307 -0.84063494 0.2906547 -0.21634544 0.33736944
488 -1.119419 0.308828 -0.3435753 -0.7898673 -0.88700306 0.05713231 -0.8208646 0.25867802 -0.24367122 0.40006894
1137 -0.84951025 -0.6139455 0.42738396 -0.34633327 0.3226361 -0.44517744 -0.9754401 0.93681157 0.2139637 0.5423216
1686 0.21128769 -0.12914474 -0.3248405 0.16317493 0.039779898 0.92107683 -0.7711145 1.4289768 0.37456483 0.49398762
1643 0.06919618 -0.18586762 -0.33170927 0.11357138 0.30866688 0.82418334 -0.5572845 1.3573377 0.22175565 0.48391238
3162 -0.4737982 -0.7182891 -0.6070195 -0.28963554 0.08081345 0.31107247 -0.37987643 0.20567057 -0.52939737 0.7518335
773 -0.40259624 -0.6195853 -0.67208815 0.047887385 0.056390326 -0.011330345 -0.62356055 0.08465929 0.85771316 0.077233255
2669 -0.5080686 0.10124348 0.325272 -1.1841422 0.28226954 0.77329797 -0.6560811 0.6402135 -0.5990824 -0.08940635
1380 0.18038991 -0.5031942 0.029288143 -0.18799183 0.92191446 1.0995795 -0.5701173 1.1310494 0.19112776 0.31823942
1197 -1.277862 0.5425738 -0.19255176 -0.24103707 0.25844786 0.07055449 -0.8771916 -0.08123194 -0.42064473 0.5868583
730 -0.33508027 -0.4943797 -0.81602895 -0.06105899 -0.06451326 0.15530628 -0.56476915 0.3018187 -0.32364577 0.48900178
770 -0.3393559 -0.5562842 -0.85261476 -0.027888523 -0.19796713 0.020722616 -0.5993815 0.11682611 0.77872 0.12930764
3161 -0.4467777 -0.6427157 -0.62285423 -0.2577276 0.099599026 0.45324707 -0.3708456 0.29940316 -0.6082293 0.7595357
726 -0.5133772 -0.7052472 -0.64023346 -0.24996436 0.102384456 0.18033779 -0.4479252 0.178642 -0.557902 0.6715337
1794 -0.004913262 0.5908328 -0.28331485 -0.4315982 0.20876434 0.3444284 -0.56055623 0.7259385 0.39407054 0.80491805
1804 -0.24808292 0.7414923 -0.007881675 -0.4784069 0.1596319 0.65668446 -0.6677356 0.24111041 0.918124 0.2964746
1550 -0.14067881 0.036949366 -0.17400959 0.30850843 0.11542024 0.862859 -0.89889824 0.5004649 0.22802112 0.77251947
854 0.07610075 -0.6177917 -0.6301897 -0.70799226 -0.4190035 0.65902305 -0.7239098 0.11102473 -0.6145432 -0.10853546
1807 -0.2762335 0.582262 0.23602965 -0.37403423 0.21735029 0.75268775 -0.8185792 0.07698601 1.2417055 0.25472394
1377 -0.054475203 -0.5415789 0.23962586 -0.15488228 0.9633351 1.2900032 -0.59847605 0.7396702 0.17437245 0.20310797
825 -0.42085746 0.4166415 0.24399981 -0.3657504 0.38342577 0.61793035 -0.7981126 -0.057719126 1.2666036 0.010900074
783 -0.46006152 -0.6089786 -0.57353693 -0.058811225 0.14451228 0.0052201604 -0.43058997 0.30981454 0.70563734 0.2616404
1809 -0.34111583 0.3597963 0.11995622 -0.29645535 0.3849335 0.7602676 -0.7314477 -0.03189803 1.3497033 0.13394862
33 -0.07131035 0.76131463 -0.29934084 -0.5819267 0.0955405 0.21265344 -0.65716726 0.523182 0.40820923 0.57801074
1384 0.08786005 -0.6902518 0.20994018 -0.18930466 0.87590235 1.3537842 -0.63570035 0.76086974 0.1614267 0.29308435
2695 -0.93145066 0.30404484 -0.37644568 -0.7994379 -1.0207292 0.01571692 -0.88206804 0.4175409 -0.2457738 0.41622964
1198 -1.3435011 0.20521489 -0.5386635 0.15063772 0.5260826 0.006760399 -0.70748794 0.057628702 -0.5065255 0.53202426
486 -0.77162135 0.35550922 -0.5046258 -0.8023264 -1.0029281 -0.049053665 -0.91497654 0.34518147 -0.20089918 0.4000862
1193 -1.1556436 0.16201894 -0.23664257 0.11084116 0.39667454 -0.29851544 -1.1589674 -0.46491957 0.40663 0.37132433
2266 -0.792831 0.23610502 -0.40298977 -0.7003763 -1.0230248 -0.20731343 -1.0821642 0.49512908 -0.084037304 0.36756322
2699 -0.7342023 0.20476846 -0.45647445 -0.74124 -1.0444984 -0.29278255 -1.040644 0.48560944 -0.032677125 0.46184742
1812 -0.31095457 0.066881076 0.42258558 -0.25899968 0.7215651 0.9221326 -0.76104915 0.031424146 1.2586194 0.044268508
2666 -0.5567629 0.0883301 0.3202098 -1.1994715 0.3503344 0.7009475 -0.62581444 0.6935279 -0.5927985 -0.06012481
2943 -0.43506742 -0.37056497 -0.65664953 -0.14102033 -0.17492837 0.56943333 -0.2975706 0.37008795 0.4637515 0.38031998
2962 -0.4346042 -0.5472193 -0.562283 -0.031373244 -0.2345289 0.7593468 -0.3472716 0.4344529 0.39412004 0.4537956
3105 -0.39342025 -0.64078844 -0.62192476 -0.021223437 0.17337129 0.11003437 -0.4060245 0.35299057 0.7595395 0.2130516
1358 0.06138788 -0.42280927 0.056329913 -0.22604397 0.79982316 1.1217191 -0.5270319 0.86043733 0.2571255 0.43156728
1808 -0.2540888 0.48883796 0.23729378 -0.3815705 0.30600905 0.6863609 -0.8066424 0.052674405 1.3811207 0.2748689
1705 0.26409915 -0.24840671 -0.22073853 0.15455802 0.27635 1.0252908 -0.8180732 1.2571574 0.33905563 0.37924576
2886 -0.2865477 -0.5921434 -0.49730325 -0.08892738 -0.0028986526 0.2916754 -0.40009916 0.46144137 0.6645448 0.39716637
1383 0.07908935 -0.624517 0.08784782 -0.24058332 0.8786785 1.352844 -0.5720853 0.7917563 0.09420833 0.33020523
2667 -0.52784514 0.09138129 0.38046458 -1.2244895 0.2996496 0.7778281 -0.65642035 0.592187 -0.6179457 -0.06221825
2945 -0.50003755 -0.35279408 -0.56716824 0.022639746 -0.1469093 0.6031746 -0.3918148 0.35222822 0.48861 0.37054825
1570 -0.19515622 -0.06063608 -0.16808783 0.2764875 0.05565498 0.899528 -0.8302604 0.45143357 0.36420238 0.69271255
3158 -0.21526632 -0.5802852 -0.8361213 -0.018376911 -0.11040108 0.3165916 -0.5311876 0.3920339 -0.14680476 0.56042457
2668 -0.54186666 0.11714532 0.35899216 -1.2690932 0.31177098 0.71645784 -0.6638633 0.5949251 -0.5953041 -0.052107032
1382 0.17497404 -0.6084313 0.1349632 -0.23188797 0.866679 1.271455 -0.61185575 0.9769235 0.14710009 0.30127555
1412 -0.036592238 0.42965662 -0.17838287 -0.4130261 0.04489379 0.5851748 -0.49570793 0.88217014 0.41275075 0.7906959
1779 0.09811894 0.57867867 -0.26748323 -0.157673 -0.09134217 0.26026133 -1.0267648 0.33484483 0.3833853 0.7237321
3157 -0.22774889 -0.60872823 -0.7755361 -0.04406058 -0.1646596 0.32071868 -0.5590038 0.34799188 -0.17577095 0.5581673
786 -0.5607743 -0.862758 -0.49273053 -0.35632998 0.0061489847 -0.041753024 -0.32166526 0.06616009 0.64179 0.5541328
1803 -0.18716979 0.8089203 -0.1111643 -0.4639022 0.020496612 0.655591 -0.6892896 0.31221864 0.8025542 0.36630753
772 -0.4302559 -0.42085594 -0.70487833 0.03174174 0.05094467 0.043278024 -0.55370754 0.169098 0.8444262 0.114605635
1811 -0.29049033 0.12291165 0.21901245 -0.26868054 0.45784226 0.7636367 -0.7563599 -0.05668119 1.3829423 0.116396375
1432 -0.28577578 0.43566856 0.24971263 -0.31734356 0.29858658 0.758388 -0.7683005 0.09006568 1.3722156 0.24975821
845 -0.48797 0.08368118 0.27299318 -1.2598134 0.4205665 0.73080206 -0.6541193 0.48749375 -0.65342367 -0.10917376
819 -0.4683575 -0.6484205 -0.6362094 -0.22003871 0.050630353 0.21352191 -0.47864312 0.23457545 -0.52090997 0.59745276
1421 0.055662774 0.36434385 -0.28639996 -0.094344184 0.051624857 0.42589295 -0.86577034 0.4024988 0.2851996 0.8345268
24 -0.05390945 0.9244459 -0.13578771 -0.5127558 0.15281796 0.43343845 -0.8628264 0.30420992 0.5960682 0.3419102
1775 0.270992 0.7636439 -0.059389453 -0.47144955 0.06861851 0.4072782 -1.0758436 0.31487474 0.27255997 0.7867947
1308 -0.47298276 0.13765821 0.18026362 0.38475809 -0.2685494 1.5595694 -0.9041264 0.7818916 0.34397492 0.4988944
1621 0.24613293 -0.18511079 -0.31706032 -0.0009121379 0.6063567 0.7288282 -0.57896626 1.3738985 0.38232544 0.36007643
1403 -0.17108114 -0.37206742 0.5004911 -0.70551354 1.0854578 1.171022 -0.51361865 0.43988425 -0.22032921 -0.024586875
3117 -0.33990148 -0.60356694 -0.7156368 0.014496145 -0.007513348 0.11457781 -0.5201072 0.24191406 0.81324625 0.19024257
44 0.165798 0.8300548 -0.11093349 -0.48088247 0.0550037 0.30688456 -1.115232 0.18187225 0.31358796 0.62559956
2226 -0.90216166 0.30609226 -0.37155423 -0.7855256 -1.0217869 0.0037012296 -0.89943266 0.43786648 -0.18953119 0.3461522
2944 -0.4372341 -0.34412357 -0.6210806 -0.019829808 -0.18289153 0.6213067 -0.39394283 0.33995086 0.49892178 0.3480944
1446 -0.28496587 0.26878962 -0.22523923 -0.19665511 -0.07049984 0.6911296 -0.50602376 0.53052944 0.62503475 0.7206714
3107 -0.27757657 -0.6058552 -0.7563967 -0.12893428 0.10396126 0.03731673 -0.414434 0.37537763 0.74544543 0.21111204
1789 -0.0150095485 0.7032158 -0.29649124 -0.35262284 0.015170263 0.38639906 -0.6870603 0.62863845 0.5345318 0.69249594
48 0.26190174 0.65712804 0.0833391 -0.690223 0.056583285 0.28795603 -1.0860598 0.24977155 0.24134445 0.6057848
2961 -0.44277754 -0.5197478 -0.5580905 -0.007347113 -0.09170415 0.6255763 -0.3486781 0.4316711 0.42636517 0.43799916
1460 -0.26666024 0.120437525 0.3487901 -0.29134685 0.4807074 0.8650998 -0.71453834 0.114812925 1.4348663 0.15266135
1209 0.24992888 -0.11464077 -0.29414344 0.31499156 -0.04172577 0.81618655 -0.9118628 1.5175034 0.40756363 0.37504512
1917 -0.28170097 -0.44082087 0.613271 -0.06393905 -0.05591283 -0.0034167264 -1.1145355 0.86592126 0.2663205 0.7587156
558 -0.08862856 0.68113154 -0.35756606 -0.4182136 0.036277268 0.20740718 -0.6414106 0.5940143 0.45992094 0.61387527
840 -0.5408658 0.22559446 0.19326667 -1.1247569 0.40979376 0.72369325 -0.614474 0.47585404 -0.6461131 -0.07356678
2894 -0.47442627 -0.39893815 -0.4426813 -0.18281221 -0.054289743 0.74666756 -0.21077846 0.56800354 0.28316212 0.6033413
554 -0.063726015 0.6460308 -0.24477132 -0.5778217 0.16211356 0.28462204 -0.5521073 0.663288 0.22274172 0.77235585
570 0.13868915 0.7436719 -0.09116748 -0.4401667 0.04127977 0.26595014 -1.0757929 0.272266 0.30109346 0.62159765
1426 0.3532938 0.54239506 0.0388921 -0.35674608 0.107443966 0.6003732 -1.0958908 0.38937965 0.29555327 0.81731135
1331 -0.118672 -0.25180736 0.5223162 -0.32873648 1.0045788 1.0946875 -0.74688196 0.15954216 0.95437056 -0.052335437
3116 -0.3160511 -0.56628644 -0.6681338 0.048060518 0.06663382 0.13367566 -0.5455702 0.23296434 0.85248506 0.15067098
4777 -0.4296034 -0.4744017 -0.66515905 -0.08391253 0.23995027 -0.041905336 -0.568387 0.1320302 0.7701249 -0.048558485
555 -0.14592496 0.7584325 -0.2078312 -0.6452871 0.0836919 0.28465214 -0.5702382 0.5926255 0.22768739 0.7083837
4640 -0.64283615 -0.65121377 -0.64603966 -0.16064985 0.013379543 -0.13969074 -0.476401 0.064488985 0.6532949 0.20056285
755 0.12444665 -0.44718185 -0.5612671 -1.0067918 -0.61425436 0.92939466 -0.5956803 0.033222575 0.13558741 -0.444535
3134 0.22714221 -0.5994195 -0.501286 -0.9483323 -0.58627737 1.0735053 -0.5873822 0.037180882 0.17059076 -0.32851762
3183 -0.5855437 -0.3089372 0.21087347 -0.7033207 -0.12608567 0.31121427 -1.3831618 -0.9335109 -0.11996552 0.13051134
748 0.12605004 -0.6194542 -0.5358276 -0.9553722 -0.6440626 0.9353329 -0.5758063 0.0946565 -0.078004844 -0.33221248
3103 -0.49511996 -0.8530755 -0.5157146 -0.22122708 -0.08847838 0.09752975 -0.3653358 0.13353184 0.86762214 0.43100283
1733 -0.42231256 -0.0144801885 0.18647346 0.39618188 -0.2450872 1.3461416 -0.892021 0.73618305 0.35163125 0.4451743
1558 0.031378224 -0.12937994 -0.052446213 -0.25122488 0.5127269 0.9860393 -0.39170647 1.4244275 0.64842004 0.5492675
553 -0.10902108 0.6374258 -0.3416063 -0.4834749 0.23429322 0.16475186 -0.52253383 0.73657095 0.28259748 0.71972764
766 0.026296489 -0.58443934 -0.6940079 -0.6430788 -0.5426189 0.5878333 -0.6580294 -0.017096872 0.49485338 -0.41067514
571 0.23344865 0.80750227 -0.14935705 -0.4835877 0.06549235 0.33782724 -1.1012589 0.21821208 0.22290021 0.6278603
3045 0.036731042 -0.777932 -0.71117646 -0.4106165 -0.38345912 0.6199769 -0.5334327 0.4469027 -0.4943849 0.4356947
43 0.08629066 0.69434536 -0.2104719 -0.44078606 0.0949939 0.249528 -1.0228181 0.12977509 0.3234522 0.5308208
4981 0.15819326 -0.46315783 -0.51790047 -1.006757 -0.5064323 0.85064214 -0.63268435 0.029500315 -0.018081376 -0.43684915
1785 -0.16113026 0.66757435 -0.26963118 -0.30096948 -0.08622723 0.33810258 -0.7790765 0.32745585 0.55981773 0.62362313
1304 -0.75373983 0.33285707 0.14662471 0.097606726 -0.13606368 1.5751379 -0.5394514 0.7878076 0.22367418 0.7943459
513 -0.5287404 0.094385445 0.2677021 -1.2646785 0.3523539 0.7232333 -0.6326089 0.53544956 -0.6504419 -0.049987014
36 -0.12989202 0.76206785 -0.2978189 -0.46982017 -0.01965638 0.25775093 -0.7581295 0.32511 0.5470177 0.44399372
757 0.066469975 -0.4235798 -0.55799276 -1.0225762 -0.5759028 0.9424789 -0.53335506 0.11095234 0.09628709 -0.49472103
850 -0.10935733 -0.72957265 -0.66919106 -0.31525895 -0.116889045 0.41076234 -0.58712286 0.32790372 -0.66011226 0.36760318
785 -0.54426086 -0.7604849 -0.53667665 -0.23944089 0.012988209 -0.06981407 -0.39553833 0.13233596 0.78935844 0.38283625
2665 -0.51393634 0.1349426 0.31443202 -1.1967351 0.34872603 0.62647367 -0.7024132 0.69720644 -0.6427723 -0.031930834
562 -0.18348277 0.6533415 -0.23558934 -0.32961005 -0.01841431 0.22612742 -0.8119924 0.28047198 0.60841674 0.44724864
1332 0.14001824 -0.3443007 0.10773584 -0.32588634 0.71290606 1.0252411 -0.47131178 1.1814204 0.7761666 0.36235338
569 0.09920628 0.6723852 -0.3098188 -0.36112648 -0.057600822 0.1811356 -1.0241666 0.20689346 0.3608662 0.545228
1669 -0.51428986 0.121453814 -0.0121084405 0.22987905 -0.13160092 1.4069309 -0.6453307 0.68712693 0.32917956 0.45057735
2206 -1.0141047 0.2127647 -0.25816485 -0.7732089 -0.8954622 0.0057890895 -0.9304555 0.41089752 -0.14877847 0.27703506
41 0.037791215 0.5328335 -0.3730032 -0.3354834 -0.040613145 0.14550063 -0.9378083 0.20476943 0.2900358 0.61247593
1649 -0.55094117 0.16013558 0.0011233182 0.24492283 -0.19626838 1.4186275 -0.6508693 0.7081681 0.21192583 0.52393395
3150 -0.17534874 -0.6710304 -0.6876964 -0.28676522 -0.20757209 0.6233309 -0.45519993 0.5312418 -0.75610656 0.60656685
738 -0.302925 -0.5564815 -0.63104266 -0.3242119 -0.14900354 0.4377801 -0.5320521 0.40270934 -0.8260481 0.48886824
1787 -0.10295731 0.81216204 -0.23026663 -0.40816075 -0.050341614 0.40287098 -0.74115115 0.44493434 0.6268085 0.6100795
4845 -0.73185027 -0.31110588 -0.7560452 -0.00067670795 0.046880648 -0.06932468 -0.5537795 0.13834736 0.6910372 0.0036717402
781 -0.40402317 -0.55890566 -0.6759783 -0.06794686 0.21529357 -0.010967938 -0.4271756 0.311269 0.6916729 0.16459362
2910 -0.42682812 -0.33898133 -0.463595 -0.092580736 -0.03333649 0.59846604 -0.31724927 0.5331825 0.31347367 0.6259961
2704 -0.7467629 0.1630927 -0.4558539 -0.66521823 -0.9939137 -0.2701493 -1.1204956 0.47030187 -0.09743042 0.33958626
3159 -0.28295124 -0.60069263 -0.75966847 -0.11924624 -0.07378066 0.37542942 -0.46697465 0.32894516 -0.24242365 0.5683381
536 -0.34524897 0.17362665 0.33051044 -0.3956266 0.61707395 0.62858313 -0.7774319 -0.105041675 1.2381132 0.0097494
1326 0.110395245 -0.59162784 0.2995973 -0.43028456 0.7513085 1.0991176 -0.5005306 0.88585466 0.83597934 0.37947825
756 0.07903044 -0.46064913 -0.596696 -1.007849 -0.5159034 0.9663813 -0.5235424 0.0075946995 0.111385584 -0.44483483
567 0.042415798 0.60451084 -0.429336 -0.18837897 0.006095629 0.19434331 -1.0286498 0.16713247 0.24507561 0.54258704
1404 -0.26773202 0.58134145 0.19111226 -0.327694 0.24194542 0.69928086 -0.78951734 0.15474191 1.2506806 0.31862327
2634 -0.093887955 -0.397843 0.424826 0.3925852 -0.31435722 0.6412004 -1.3567446 0.77746916 0.34283343 0.19061731
2326 -0.73950934 0.2066322 -0.4612706 -0.6504837 -1.1023026 -0.24839395 -1.1581585 0.4730533 -0.08998841 0.35505217
843 -0.56347865 0.11846401 0.25141594 -1.2266864 0.40752003 0.77797616 -0.65892226 0.45627907 -0.6636149 -0.12991881
1301 -0.73467505 0.36357605 0.2222148 -0.11935223 -0.03531274 1.4200946 -0.4366562 0.7400236 0.43662155 0.94268644
27 0.13155243 0.89904565 -0.1222741 -0.60552186 0.1477999 0.32462326 -0.89908403 0.44039539 0.5194453 0.42337605
1793 -0.04472693 0.65676814 -0.28756475 -0.5641924 0.10330611 0.36178347 -0.5264929 0.68353945 0.3019522 0.8340996
574 0.23422357 0.7618317 -0.09654823 -0.4973776 0.04081552 0.33954042 -1.1183442 0.23199746 0.2372716 0.6105191
1537 0.041955974 -0.12585613 -0.028986568 -0.30374458 0.42500362 0.97501004 -0.37850076 1.4006084 0.7015133 0.52181995
762 -0.08638265 -0.23436022 -0.6150486 -0.88071793 -0.54311395 0.8222565 -0.46574095 0.10160601 0.23499645 -0.39220208
1729 0.108671285 -0.16807005 -0.14052463 0.3558169 -0.12387399 0.90592384 -0.90577674 1.3188529 0.38322267 0.43810755
761 -0.14097731 -0.19602396 -0.6789471 -0.8654855 -0.5559313 0.81734765 -0.42166236 0.06634482 0.26416376 -0.3058177
1368 0.05541957 -0.5874419 0.17035182 -0.23636448 0.8811253 1.3213347 -0.5700734 0.80756027 0.15159638 0.3653161
1376 0.035983816 -0.5570166 0.18317002 -0.2010126 0.92474276 1.3154917 -0.61190873 0.7649851 0.11735518 0.33051184
2694 -1.0406094 0.3352642 -0.35738134 -0.7565931 -0.979244 0.029418835 -0.8807652 0.3872252 -0.20961191 0.38608164
478 -0.7164763 0.28899428 -0.5133452 -0.6282054 -0.9627307 -0.2547778 -1.1207782 0.44950497 -0.17707103 0.38541734
479 -0.6900657 0.28942406 -0.5548664 -0.5990444 -1.0407456 -0.211209 -1.0836086 0.4130934 -0.14879282 0.42376307
1488 -0.17997313 0.007061966 0.41165987 -0.34342214 0.6203198 0.9463454 -0.73094475 0.08808237 1.3359588 0.11319711
39 0.043478224 0.75354016 -0.25604752 -0.31537166 0.14353566 0.12440433 -1.0227782 0.24491714 0.28152615 0.6477074
3131 0.18216579 -0.46600592 -0.57110506 -0.9540255 -0.6656227 1.0772216 -0.5479551 0.12467005 0.17963168 -0.3398289
784 -0.56720346 -0.62707186 -0.60416293 -0.027336277 0.073477246 -0.0023784083 -0.4490159 0.1702452 0.7657119 0.24989195
1780 0.07572267 0.49618477 -0.34772742 -0.15034597 -0.12925822 0.29067498 -0.97703034 0.27269575 0.34427038 0.72013956
485 -0.7184656 0.2710501 -0.43750802 -0.72762734 -0.94139475 -0.15049319 -1.02724 0.3935036 -0.20439056 0.39584273
516 -0.5506917 0.11226879 0.23926376 -1.2174523 0.3279554 0.67967194 -0.6512441 0.5923575 -0.7075004 -0.0776631
3133 0.21098733 -0.5058216 -0.50505537 -0.88867784 -0.5596308 1.1602665 -0.5726954 0.091726914 0.26753268 -0.34843206
552 -0.08174606 0.7416914 -0.3489797 -0.35275692 0.30195767 0.23063923 -0.6409654 0.6667105 0.454807 0.57304144
747 0.064371735 -0.55073994 -0.6663437 -0.8700289 -0.47848985 0.89821476 -0.5508266 0.09525218 -0.3930833 -0.22794946
1777 0.23494369 0.7320266 -0.081667244 -0.36287984 -0.039035633 0.40571833 -1.0840122 0.3810117 0.39953762 0.6893778
3142 0.21186233 -0.5719858 -0.56568843 -0.7470374 -0.45081645 0.97565216 -0.63645667 0.1865167 -0.4095917 -0.103043266
1860 -0.09269981 -0.4051814 0.38715926 0.39852855 -0.33951333 0.7218575 -1.257424 0.7346541 0.3815887 0.33292225
2853 -0.40384784 -0.8546736 -0.46432275 -0.51527876 0.009001562 0.3787487 -0.28972366 0.18555903 -0.4346515 0.8170185
3030 -0.3008735 -0.701437 -0.7357789 -0.052058544 -0.17325722 0.11755191 -0.55021065 0.13425756 0.8217881 0.19192527
3102 -0.45675352 -1.0243378 -0.47229218 -0.32531208 0.029726392 0.11039962 -0.29403517 0.15250719 0.6421947 0.5694201
1348 0.10576342 -0.39756563 -0.09428419 -0.15927303 0.8697366 0.8015134 -0.45580083 1.1178455 0.59063727 0.26535034
575 0.29198286 0.6707003 0.0197208 -0.5259649 0.023454815 0.40544215 -1.1204957 0.24281989 0.19428408 0.6788228
22 -0.2812447 0.62879735 -0.014702221 -0.50014997 0.09127353 0.5116025 -0.7232923 0.11549735 0.80318725 0.21634841
2933 -0.092863135 -0.61392933 -0.68068886 -0.043222394 -0.15791358 0.5474956 -0.573984 0.4489361 -0.21388854 0.5941142
1356 0.13636002 -0.3687339 -0.17947179 -0.11106879 0.8888739 0.8628344 -0.4658152 1.1812931 0.4189683 0.28470793
1791 -0.03480503 0.79051656 -0.17971359 -0.5586583 0.037389427 0.4372535 -0.59044385 0.75549257 0.46521515 0.833451
2703 -0.7221898 0.25849757 -0.47445434 -0.610812 -1.0384427 -0.26122454 -1.1260697 0.53160477 -0.09557881 0.38857275
1670 -0.505701 0.1371426 -0.0051608533 0.29467025 -0.16447204 1.4083934 -0.7098953 0.6981489 0.34177005 0.47285163
561 -0.30756843 0.67958057 -0.37806267 -0.38982832 -0.042207044 0.2481319 -0.6589442 0.26063848 0.66117084 0.4532416
4709 -0.5753219 -0.43175164 -0.7225956 -0.13171671 0.08776109 -0.036994454 -0.44360322 0.16230404 0.5350216 0.20224616
1339 -0.14930063 -0.50931877 0.50101423 -0.29977113 1.2106365 0.9841114 -0.69942653 0.22887067 0.6154754 -0.12601112
798 -0.63461876 -0.6203004 -0.21071051 -0.9064942 0.0043724454 0.18221731 -0.015116301 0.28665257 0.06195156 0.89987046
559 -0.1358319 0.84776413 -0.2781042 -0.4394567 0.058204524 0.23290719 -0.7450987 0.4577265 0.39063275 0.5810638
544 -0.22506945 0.7876905 -0.14930378 -0.50156116 0.056267057 0.40760112 -0.7445216 0.22673644 0.73498476 0.32226652
551 0.043278027 0.7963484 -0.36461768 -0.38218492 0.24828911 0.21596745 -0.7582431 0.697296 0.4286344 0.41025728
729 -0.29059973 -0.5326769 -0.677939 -0.21173885 -0.023192458 0.24835959 -0.5286229 0.2497013 -0.3477078 0.5408938
1420 0.006386701 0.5973402 -0.19111449 -0.21641362 0.062421232 0.45661375 -0.81773275 0.47308204 0.40868205 0.869808
1861 -0.05975008 -0.4981018 0.387184 0.38268697 -0.37658647 0.70169586 -1.244757 0.7332458 0.33352786 0.33913237
1214 -0.04762196 0.067574866 -0.21417797 -0.16816922 0.17638911 0.7719158 -0.3768369 1.6774579 0.5812479 0.74499977
3118 -0.2607614 -0.68106484 -0.7321674 0.0056938515 -0.15737945 0.09049204 -0.6034728 0.20914759 0.8792238 0.12689206
573 0.21511768 0.82775164 -0.076604836 -0.48617867 0.1296514 0.3354375 -1.1024574 0.27814987 0.23328117 0.63226193
754 0.14387137 -0.45748207 -0.5285998 -0.95716274 -0.5410774 0.92110133 -0.6159083 0.09507033 0.08226174 -0.4962194
1771 0.3079181 0.65138614 0.10513936 -0.5610358 -0.10516523 0.53754425 -1.0653031 0.35748243 0.32116073 0.82374007
782 -0.4280848 -0.57939166 -0.71188295 -0.08569082 0.24437754 0.027891265 -0.3875025 0.3401595 0.64927644 0.104667105
1814 -0.2080973 -0.24376562 0.506709 -0.2773237 0.77213293 1.0036819 -0.7556627 0.03519922 1.1544765 0.08538883
3140 0.26109645 -0.5622962 -0.59020776 -0.95885426 -0.5606311 1.0472482 -0.51113623 0.23708008 -0.010542412 -0.24704444
3124 0.099696554 -0.45287132 -0.62235457 -0.8077859 -0.6209877 0.9122506 -0.54663813 0.0615265 0.37958193 -0.31977773
1663 0.30374956 -0.29022142 -0.22389093 0.043426286 0.5525152 0.9329972 -0.6904948 1.350237 0.3599937 0.3611877
1347 -0.1429817 -0.64142215 0.4356742 -0.25015837 1.1851449 1.0275911 -0.719068 0.20030765 0.3882279 -0.14794533
171 -0.8250896 0.46103114 -0.49661008 -0.85426927 -0.91486746 0.025052775 -0.8737808 0.2750894 -0.28764683 0.39982077
1586 -0.6885317 0.25766578 0.1317399 -0.10533094 -0.050664946 1.4313314 -0.3864756 0.73925847 0.3013821 0.82547843
2697 -0.8534055 0.26607546 -0.3371823 -0.7559354 -0.95199615 -0.17932124 -1.0406694 0.4624213 -0.15932259 0.3964981
746 0.11831415 -0.5142512 -0.6147459 -0.7416583 -0.4642706 0.8372775 -0.6784699 0.1029641 -0.4655142 -0.15120077
1728 0.16155826 -0.20822835 -0.16941978 0.3156246 -0.13931593 0.8606749 -0.91013795 1.3177547 0.35891497 0.44905216
1213 0.05192689 0.12409206 -0.42806664 0.12896036 0.30230513 0.7419757 -0.54275566 1.6956111 0.47162718 0.554958
3132 0.22915535 -0.5517432 -0.49979475 -0.92772555 -0.65771633 1.1022209 -0.5810168 0.14673282 0.1987157 -0.3128062
568 0.06218368 0.59249413 -0.4314889 -0.23004241 -0.049781308 0.18164295 -0.977769 0.2177657 0.31918454 0.58024395
2846 -0.654615 -0.71962166 -0.16940808 -0.8917619 -0.07022294 0.3843138 0.045754142 0.3190757 0.08635509 1.0376638
2845 -0.6265342 -0.6958383 -0.17940542 -0.8715977 -0.015005246 0.38084826 0.02996075 0.34140807 0.08336899 0.96913326
1754 -0.29981154 -0.1304326 0.29199633 0.33265677 -0.32848656 1.2014357 -0.9636245 0.7691329 0.35644242 0.39674088
482 -0.6737374 0.24720427 -0.57295424 -0.66205716 -1.004794 -0.2735999 -1.0462267 0.37824416 -0.13021012 0.4165001
1799 0.27668515 0.8167329 -0.03324904 -0.5391505 0.053396516 0.5621986 -0.92506874 0.5601415 0.55247706 0.5014885
543 -0.34880802 0.7177612 -0.076936044 -0.4663674 -0.0039029405 0.58554196 -0.6689788 0.20955342 0.8326563 0.22946014
34 -0.1271513 0.7046049 -0.443672 -0.44818452 0.060437128 0.18387917 -0.67220944 0.34752724 0.402612 0.5904972
2306 -0.75193727 0.22058316 -0.475514 -0.67343754 -1.0219835 -0.34593046 -1.1928158 0.4513902 -0.13003168 0.40005952
1367 0.10902716 -0.60525835 0.093841635 -0.22296456 0.8354063 1.3430148 -0.59559125 0.8561776 0.11367425 0.26113513
1415 -0.029781498 0.5860428 -0.12908116 -0.48349816 -0.01018004 0.6762545 -0.53326654 0.8744246 0.40499365 0.87769675
1429 0.38389745 0.4537932 0.031758428 -0.41738197 -0.022486433 0.6037985 -1.0716412 0.35829192 0.33194548 0.93979007
3119 -0.19975828 -0.6044878 -0.7129997 -0.086846255 -0.3548564 0.14178872 -0.6295673 0.22857171 0.8034257 0.11247196
2942 -0.34830743 -0.3999394 -0.51121074 -0.14913933 0.010820668 0.5576553 -0.3237258 0.4967299 0.39762464 0.5301382
2696 -0.90018773 0.2587172 -0.35895774 -0.7287216 -0.9980135 -0.040096324 -0.897726 0.5200618 -0.21055824 0.4285339
481 -0.6318597 0.23965488 -0.59068066 -0.60150194 -1.0354877 -0.3635247 -1.1525084 0.34051174 -0.077259116 0.43871662
512 -0.5460649 0.0935696 0.29258925 -1.2022396 0.34387153 0.74862623 -0.6267686 0.5664985 -0.6775121 -0.049919605
2700 -0.7203068 0.14752084 -0.43166143 -0.6428656 -1.0463474 -0.28151736 -1.1041749 0.47527036 -0.124156915 0.4696441
1685 0.22978637 -0.13670185 -0.27152058 0.1294236 0.14704251 1.0052068 -0.76895905 1.3812315 0.3392109 0.46242893
3104 -0.48665 -0.6630813 -0.5946306 -0.113539755 0.016816802 0.08544861 -0.36979663 0.2422753 0.8267732 0.34942764
1763 -0.0077071385 -0.5587899 0.37527385 0.28221083 -0.4431417 0.6868851 -1.14798 0.8598792 0.4408415 0.56526214
3061 0.20313188 -0.6587415 -0.74474037 -0.57929105 -0.48242673 0.7522934 -0.6367456 0.28635168 -0.4950733 0.15002799
2698 -0.7420991 0.21397743 -0.38950163 -0.76311636 -0.97813016 -0.2432371 -1.0439765 0.49312916 -0.10833082 0.4040517
1776 0.24308597 0.74191153 -0.11022008 -0.40917283 -0.0426286 0.45826286 -1.0952144 0.25614455 0.26757914 0.75273323
833 -0.30962047 -0.5704023 0.3059055 -0.28503066 1.2323152 0.8644358 -0.69754046 0.18809383 0.06011515 -0.27182198
3090 -0.62010914 -0.67517865 -0.18193872 -0.83505785 -0.030173838 0.35245574 0.0050823665 0.36404514 0.053227734 0.94851923
1796 0.02492318 0.7703646 -0.29439664 -0.3411026 0.27229476 0.32774687 -0.70246917 0.71340626 0.59199286 0.60290253
1375 0.10205208 -0.57051474 0.1638217 -0.19499637 0.8493508 1.2832221 -0.64223725 0.78572136 0.15344514 0.35737616
2633 -0.07877917 -0.3827559 0.42954686 0.39686844 -0.2573787 0.6067436 -1.344722 0.8044027 0.31537175 0.21395689
3106 -0.2981897 -0.5817376 -0.7409816 -0.03389731 0.16123393 0.16563961 -0.4085877 0.37911713 0.6853113 0.22123165
572 0.2576153 0.795746 -0.092312984 -0.5049118 0.13581254 0.3088626 -1.0964966 0.2598507 0.21622819 0.75401735
514 -0.5863177 0.09238534 0.28356695 -1.2213075 0.36632016 0.77008593 -0.62822217 0.5490423 -0.6932439 -0.07474178
1430 0.41478372 0.28897962 0.14675742 -0.4634503 -0.03177592 0.60438436 -1.068536 0.36788654 0.45411894 0.8968169
2842 -0.49798313 -0.6961889 -0.29611966 -0.68993586 -0.0016822618 0.3295416 -0.073381566 0.33627424 0.16858035 0.9227875
1564 -0.46146896 0.22012159 0.104421325 -0.12875187 -0.03418896 1.3310732 -0.51050925 0.7609408 0.41794294 0.8715728
774 -0.33297476 -0.875371 -0.5581005 0.013664104 0.13380179 -0.07878332 -0.6390798 0.08389152 0.83520484 0.107012294
29 -0.07817254 0.74961495 -0.32357973 -0.4242604 0.28419203 0.14578797 -0.685185 0.5826404 0.48525798 0.5095426
742 -0.10057743 -0.6920729 -0.6933155 -0.51962155 -0.25674897 0.5377142 -0.5426366 0.26985192 -0.6493364 0.2728395
2702 -0.71667993 0.22146185 -0.50138545 -0.57755804 -1.1189163 -0.22769691 -1.1522467 0.455409 -0.123279184 0.384136
483 -0.6526999 0.28870553 -0.54445934 -0.7379736 -0.92145437 -0.30211586 -1.036453 0.35144138 -0.03804446 0.39727724
4564 -0.7965197 -0.6483245 -0.0872575 -1.0063943 0.04679015 0.2504944 -0.0058376514 0.095498644 0.019655613 0.8282632
3126 -0.049132105 -0.25562322 -0.6561662 -0.819645 -0.48048267 0.90398943 -0.40178046 0.15643357 0.27861744 -0.2613945
758 0.017018568 -0.35054806 -0.617579 -1.0062397 -0.6022994 0.9294726 -0.48893145 0.110798664 0.10674641 -0.4278513
1447 -0.2243174 0.29306036 -0.26301724 -0.1439479 -0.14811596 0.63393265 -0.6033561 0.52373034 0.6024742 0.8235598
2881 -0.40055588 -0.37135485 -0.47069064 -0.17139384 -0.14974944 0.68696165 -0.28735968 0.5359965 0.28495997 0.59995687
760 -0.009893564 -0.22875282 -0.6890366 -0.87394744 -0.5130991 0.92237884 -0.41603014 0.17426302 0.24958198 -0.35498893
2975 -0.38111764 -0.5364647 -0.4242578 -0.18732741 -0.18075183 0.89739585 -0.24660243 0.5941459 0.43115285 0.40909755
3127 -0.05030724 -0.24142815 -0.6453219 -0.8202696 -0.6009609 0.9641771 -0.40818328 0.20147936 0.2764253 -0.29169843
1325 0.10727918 -0.4825044 0.17752299 -0.4357573 0.74350053 1.1215376 -0.4461403 0.89733666 0.7820738 0.3737278
2882 -0.3746929 -0.43070483 -0.5260693 -0.13283747 -0.102069885 0.5490306 -0.3746489 0.29533064 0.30691296 0.6413386
4869 -0.6465398 -0.29529315 -0.709198 -0.009606664 0.03637463 -0.047212087 -0.5179946 0.1904562 0.7804058 0.040358722
4893 -0.43639714 -0.49125487 -0.78537786 0.01954642 0.13096514 -0.05201181 -0.5467848 0.17147142 0.6600837 0.16756804
2286 -0.74052435 0.21320994 -0.47125646 -0.6556171 -1.0133681 -0.3248918 -1.104146 0.50994176 -0.10267482 0.43556362
2671 -0.60826063 0.02230484 0.3591651 -1.1476004 0.26193663 0.7203073 -0.66992307 0.6380976 -0.6511377 -0.04420546
1449 -0.06621234 0.08307679 -0.2321899 -0.017593017 -0.03422189 0.52696127 -0.7498668 0.5298476 0.3989605 0.86973697
1783 0.09293594 0.6771933 -0.25287428 -0.2256825 0.048003264 0.35507298 -0.9401597 0.38593626 0.33329293 0.7847563
2701 -0.6859302 0.16904499 -0.42524272 -0.62932545 -1.0222119 -0.26518956 -1.1185826 0.43204752 -0.1518059 0.49644628
3128 0.045357283 -0.3336331 -0.6112125 -0.8613776 -0.6263248 0.9748356 -0.42938632 0.22690883 0.27242264 -0.29741395
737 -0.29782104 -0.49389598 -0.65531254 -0.29257843 -0.18623598 0.46038884 -0.5362526 0.50587624 -0.8765579 0.43964702
1667 -0.08977581 -0.00077401166 -0.3568557 0.22452731 0.020558748 0.980409 -0.65504503 1.0774734 0.30498564 0.46984667
1810 -0.3752905 0.18464117 0.23101233 -0.21754657 0.41324598 0.7228741 -0.73205173 -0.0059854235 1.3734183 0.1937866
1324 0.13474101 -0.37237254 0.15698011 -0.3686329 0.7141557 1.0166928 -0.47164327 1.0696248 0.7385913 0.3573732
740 -0.21104117 -0.61362535 -0.7474813 -0.25914365 -0.187313 0.4033307 -0.55140036 0.37442285 -0.67470795 0.44142893
4971 -0.058857772 -0.33769163 -0.69828486 -0.9127944 -0.4790694 0.7844611 -0.47495678 0.06482942 0.14737788 -0.40472072
1314 -0.19934045 0.054908462 -0.07657269 0.4298001 -0.015422258 1.0597867 -1.055521 0.34287965 0.24964948 0.8425442
829 -0.26704097 -0.50736105 0.4143551 -0.36824912 1.1727227 0.77688557 -0.72998554 0.050542224 0.3223939 -0.19002259
1786 -0.14741704 0.5689635 -0.33181614 -0.38054672 -0.06354421 0.4154524 -0.6559941 0.33949932 0.6332936 0.509902
484 -0.65145 0.23454607 -0.4821695 -0.7184933 -1.0019941 -0.22166245 -0.99625516 0.4062771 -0.11353362 0.45485607
2839 -0.5179905 -0.99842954 -0.10294821 -0.65270835 -0.06599118 0.37220007 -0.1828938 0.040743213 0.58042485 0.7744401
3184 -0.6334854 -0.18557152 0.23133998 -0.74672467 -0.054171424 0.31397754 -1.3092192 -0.8673838 -0.106822684 0.14587542
1707 0.1435515 -0.1258464 -0.2718437 0.18218705 0.029288102 0.96547097 -0.7789488 1.2964356 0.28352615 0.4337524
3191 -0.57109445 -0.29778826 0.18574868 -0.68002325 0.098184004 0.31796035 -1.3121371 -0.86266565 -0.11424555 0.074938215
1540 -0.094181724 0.010861001 -0.055010263 -0.26091862 0.08278645 0.90584975 -0.38268244 1.396134 0.55417216 0.78693295
4846 -0.6045546 -0.48534748 -0.757111 -0.040391702 0.13159415 -0.109975874 -0.5668452 0.0771081 0.76915556 -0.07199459
546 0.11779063 0.91240406 -0.10245384 -0.5887479 0.14675845 0.42761838 -0.93865174 0.30535167 0.48013535 0.39843237
25 0.09391849 0.9234089 -0.07455569 -0.6229051 0.08227782 0.412837 -0.89890563 0.4261635 0.48737243 0.34765744
734 -0.16092171 -0.7253177 -0.71074134 -0.10989122 -0.1483576 0.34724477 -0.73597383 0.27283835 -0.75914013 0.34514323
3111 -0.15101828 -0.8979453 -0.5983032 0.022683024 0.049107864 0.047601365 -0.6823872 0.15735951 0.9222554 0.10696547
1518 -0.09433223 0.11595678 -0.12812215 -0.2583294 0.124270126 0.9814215 -0.37718692 1.3648653 0.5847817 0.65560967
3123 0.13260545 -0.4903177 -0.6991501 -0.76007 -0.6492458 0.7818935 -0.66174716 -0.062784046 0.4371517 -0.32547355
4975 0.04538848 -0.38215262 -0.5612782 -1.0367014 -0.5853639 0.90357834 -0.52727413 0.078072235 0.10376692 -0.4530185
4868 -0.7212356 -0.17309697 -0.7482332 0.035485387 0.01696295 0.0029778979 -0.52017915 0.1484888 0.6855828 0.07746817
2900 -0.269923 -0.59108037 -0.5461195 -0.103324346 -0.11101904 0.4515549 -0.46125063 0.35545343 0.1356066 0.5151465
830 -0.30341536 -0.29667506 0.51439244 -0.3726617 1.0116948 0.8278284 -0.7346046 0.05054199 0.66911376 -0.2352752
4598 -0.5504841 -0.08130226 -0.9281494 -0.24227878 0.10354867 -0.21368985 -0.47400135 0.458466 0.20359422 0.08180212
831 -0.23336272 -0.5049123 0.31843796 -0.32501042 1.2109923 0.77777886 -0.7342819 0.15532796 0.16429995 -0.22303794
1529 -0.011139192 0.016063225 -0.046548843 0.31218076 0.11565739 1.0166261 -1.0856951 0.43338317 0.29879677 0.8921039
3147 -0.059270054 -0.74162453 -0.6649963 -0.3419538 -0.23580214 0.56465644 -0.54872227 0.33231992 -0.52564764 0.4229712
2946 -0.4038824 -0.4523637 -0.5464964 -0.012755585 -0.1390727 0.77707887 -0.36419097 0.46454236 0.3331722 0.5301115
1561 -0.108899675 0.079148024 -0.09564799 -0.21357864 0.11723464 0.9050849 -0.39329576 1.3586289 0.565765 0.7323547
1571 -0.21750762 0.022922061 -0.122158594 0.29895455 0.0400235 0.9579061 -0.9008701 0.3776362 0.26333848 0.72131884
1427 0.36969677 0.38497764 -0.013711725 -0.40924793 -0.05319297 0.5932302 -1.0143212 0.45144868 0.25338277 0.8349145
1801 0.1477905 0.81870824 0.03186175 -0.55220777 0.09889589 0.61338395 -0.8853407 0.44044772 0.5176747 0.5608853
565 0.036446635 0.72729003 -0.309116 -0.2680263 0.1102589 0.12022966 -1.0023054 0.28669158 0.26935306 0.67847914
744 0.0251526 -0.53058064 -0.6970822 -0.68876785 -0.4599713 0.71105623 -0.65833807 0.16157785 -0.5846309 -0.07761388
1797 0.15633397 0.8244609 -0.13565186 -0.45636964 0.111736484 0.41682205 -0.83694994 0.66665924 0.4821283 0.590266
579 0.2770339 0.44933227 0.21726577 -0.7571759 0.11751525 0.3542973 -0.99334425 0.21945243 0.21733376 0.70736647
1734 -0.38196498 -0.086650245 0.13285714 0.32903734 -0.3230379 1.3677862 -0.86139363 0.71206284 0.377705 0.5045176
1413 -0.053022236 0.3846292 -0.06911349 -0.5077309 0.12326568 0.7161678 -0.47581318 0.83625823 0.29631096 0.95035636
1405 -0.17420776 0.64901936 0.038627055 -0.4502873 0.14280064 0.7198861 -0.68429315 0.28379855 0.9617259 0.3088207
2631 -0.12299096 -0.47299024 0.40596992 0.30711353 -0.40587184 0.5454749 -1.2855667 0.6827182 0.17523117 0.4029849
2895 -0.44964078 -0.5032923 -0.4463014 -0.03134472 -0.037918597 0.62692666 -0.2853484 0.6137149 0.41260988 0.5236272
1672 -0.39792046 0.03705259 0.118631795 0.19329552 -0.14086734 1.4838232 -0.76072836 0.62459016 0.37621817 0.5733243
1423 0.12973224 0.4430755 -0.20954971 -0.061680812 0.027501633 0.51776195 -0.9977978 0.3789375 0.31067288 0.8026268
732 -0.28597403 -0.5865413 -0.72996294 -0.03814966 -0.10555019 0.25416178 -0.64163715 0.24546722 -0.50170696 0.53253186
751 0.09703382 -0.51963633 -0.58039343 -0.94946593 -0.53132725 0.8580471 -0.55884486 0.023256002 0.11841338 -0.3712702
563 -0.07200512 0.75561816 -0.1542031 -0.3933306 0.09331123 0.20808396 -0.89883125 0.3126942 0.4044334 0.61999947
515 -0.51693475 0.20024979 0.29908845 -1.2335899 0.42218375 0.7459518 -0.64933234 0.54020995 -0.65011346 -0.048799504
1718 -0.28664818 -0.17429194 0.20671351 0.317707 -0.1966483 1.1680495 -0.95727587 0.577861 0.32162884 0.8050052
778 -0.26159078 -0.87683433 -0.62455505 -0.011879453 -0.0066327453 -0.021800527 -0.7072593 0.03787375 0.8757735 0.03204011
1664 0.20049824 -0.13508642 -0.31153527 0.10812302 0.19752574 0.9640995 -0.698019 1.288377 0.32262748 0.42870694
847 -0.16755728 -0.71170866 -0.7233598 -0.15167765 -0.14388098 0.39122224 -0.68284893 0.3296069 -0.73691124 0.33771923
799 -0.7695441 -0.6730839 -0.10831862 -0.9716966 0.065947704 0.20638755 -0.02008058 0.12579814 -0.010036361 0.9632539
1628 -0.56413084 0.14529921 0.062854424 0.19369763 -0.26737162 1.5098287 -0.68580335 0.6342523 0.25668857 0.68755776
4847 -0.55205065 -0.5163537 -0.6363444 -0.048319984 0.12985839 -0.1526043 -0.6398766 -0.011409395 0.8227886 0.035546105
3046 -0.1797137 -0.6005967 -0.80592525 -0.1861107 -0.3905186 0.25762156 -0.5676914 0.16492973 0.7748021 0.06691491
40 0.0030544207 0.5920221 -0.4037552 -0.25805166 0.010748786 0.116171576 -0.995463 0.10149899 0.2872809 0.5948291
1749 0.16785187 -0.23838635 -0.08470755 0.33842623 -0.21076514 0.8230518 -1.0054891 1.2723448 0.30018517 0.38686728
1327 0.14598715 -0.5839975 0.36155778 -0.44898406 0.7193597 1.1702046 -0.5741737 0.75684047 0.8312614 0.30635738
743 0.046756286 -0.6526732 -0.72770226 -0.63593304 -0.36921215 0.6682173 -0.63035 0.16491939 -0.58401054 -0.03169191
1800 0.21890381 0.7912537 0.0026894717 -0.5852185 0.06570681 0.554628 -0.9057685 0.47630614 0.5024239 0.4970006
2629 -0.10405916 -0.5815721 0.48816493 0.20625764 -0.32610354 0.39462554 -1.2414356 0.7668861 0.2592704 0.53015554
1898 0.0013857038 -0.21486482 0.21511024 0.15645269 -0.30491427 0.5238247 -1.1959939 1.1123179 0.059810378 0.16908684
3182 -0.67565006 -0.2679774 0.13960785 -0.733648 -0.029093308 0.27730405 -1.2849938 -0.8730748 -0.1867852 0.13227937
1739 -0.25747764 -0.22742125 0.25798014 0.30661327 -0.17234217 1.1228391 -0.93308705 0.6569209 0.34310675 0.6781098
1371 -0.108563185 -0.58111745 0.33187506 -0.24437313 1.2742165 1.0331385 -0.7229941 0.30364478 0.060175758 -0.1420057
3151 -0.18183705 -0.6640246 -0.6338385 -0.26295978 -0.19329259 0.52181846 -0.53397167 0.45766363 -0.7291446 0.61360323
3062 -0.061885685 -0.63196504 -0.7939787 -0.34376398 -0.4998418 0.45746252 -0.5816387 0.13534214 0.6354315 -0.08861376
28 0.06086133 0.8163623 -0.23671135 -0.4796239 0.15895955 0.18642394 -0.87934875 0.56240124 0.39537492 0.38496116
1911 -0.1754027 -0.4742935 0.39474568 0.40856558 -0.3313505 0.55024624 -1.321807 0.7793676 0.37916034 0.104955174
1755 -0.34948722 -0.20213552 0.30106863 0.36468378 -0.39545164 1.0843786 -0.9671341 0.7427193 0.39541563 0.41816115
1624 0.021946872 -0.03706221 -0.45010108 0.27102345 0.124074586 0.6406991 -0.6618217 1.3210926 0.35871857 0.5045531
23 -0.26646602 0.80037403 -0.18033361 -0.51098704 0.09346832 0.48166397 -0.70244545 0.1992262 0.6557795 0.24747778
788 -0.6511115 -0.8160475 -0.41091138 -0.48630974 -0.016679652 0.03651005 -0.29471567 -0.035129644 0.5005183 0.44114894
3324 -0.21319176 -0.96008873 0.0027223362 -0.7746571 0.76941615 -0.05806368 -1.0488861 -0.38903102 0.24163914 -0.29593664
4686 -0.6341226 -0.42455536 -0.71075803 -0.1137455 0.1411629 -0.040538333 -0.45598602 0.08838257 0.61091864 0.14311229
4559 -0.6549802 -0.7341137 -0.1487681 -0.8666393 0.06834994 0.17201546 -0.1059792 0.077772 0.09721426 0.78103614
836 -0.27408308 -0.5341539 0.4309048 -0.5169921 1.0797799 0.8364207 -0.6057218 0.37249196 -0.13350424 -0.14931369
1711 -0.35176632 0.025274813 0.060348928 0.29034147 -0.19428717 1.3833514 -0.8079283 0.8344281 0.39929125 0.5733527
2892 -0.49497098 -0.38855407 -0.51800543 -0.123024896 -0.02030858 0.6376204 -0.2330658 0.4976404 0.49486998 0.40270936
752 0.12141011 -0.5098571 -0.56936926 -0.94472235 -0.59311324 0.87669045 -0.55039126 0.12772208 0.17067268 -0.38659823
4972 -0.10392493 -0.178475 -0.66448873 -0.85870975 -0.4572972 0.80730164 -0.44167888 0.086854756 0.28586614 -0.34708735
1726 0.28964803 -0.31119996 -0.111467585 0.24724127 0.0020536196 0.90388346 -0.93306416 1.2354907 0.4172816 0.32711667
2852 -0.44095582 -0.9240301 -0.21767132 -0.72937226 -0.1053471 0.43083927 -0.23656085 0.085712545 -0.17168315 0.9061184
1762 0.005756741 -0.49782827 0.33602828 0.3376989 -0.32626083 0.71589667 -1.184688 0.79369766 0.33748075 0.53210855
1184 0.55784327 -0.36826652 0.3193048 -0.41554075 -0.14062472 0.7815283 -1.1213248 0.6962779 0.50263137 1.1049436
834 -0.24186452 -0.48325542 0.35703462 -0.3279933 1.1736184 0.8359479 -0.71939504 0.24267654 0.10455373 -0.25885
1788 -0.064092085 0.815764 -0.17930777 -0.4406012 0.025046835 0.42075914 -0.70263714 0.59348696 0.4796386 0.7069212
2638 -0.32866246 -0.40510848 0.53367215 0.28062758 -0.43165934 0.7249006 -1.2057056 0.6403482 0.2885407 0.24426018
1714 -0.3649696 0.056541163 0.20941627 0.28655744 -0.21265699 1.3443177 -0.88102084 0.68496835 0.3538502 0.5614791
1645 0.090258665 -0.09614793 -0.36138582 0.30577025 0.05653978 0.9019099 -0.7873379 1.3236984 0.33725545 0.52055806
2345 -0.8229151 -0.471782 0.4457198 -0.38125774 0.29521924 -0.4346069 -0.967306 0.8965521 0.2875581 0.54551417
1904 -0.27334 -0.30182952 0.34682482 0.32617438 -0.38430783 0.69914937 -1.1721096 0.7397051 0.24844262 0.2187275
2949 -0.100766435 -0.6546807 -0.7468811 -0.08305927 -0.23286271 0.5663485 -0.65481615 0.36225814 -0.5885111 0.42115632
1901 -0.22895569 -0.24411611 0.2783311 0.29374573 -0.38612163 0.54383326 -1.2649046 0.79037404 0.1558093 0.17710137
1560 -0.07688467 0.055632442 -0.102145255 -0.2729042 0.1425946 0.883908 -0.36096653 1.4132051 0.60444695 0.7219492
2870 -0.387215 -0.7027648 -0.54017085 -0.16362953 -0.057901777 0.17181194 -0.37472716 0.30371007 0.7778519 0.429236
4754 -0.4222285 -0.4965562 -0.758973 -0.045903947 0.07779028 -0.1618268 -0.6602656 0.10943859 0.6747455 0.021039052
1422 0.06691831 0.2732925 -0.35073653 -0.047577277 0.07382356 0.46482083 -0.8443795 0.43850982 0.23204273 0.7711547
739 -0.22925602 -0.6336024 -0.7276496 -0.30294773 -0.14849465 0.42086893 -0.48690718 0.45753974 -0.71526265 0.46666104
1792 0.018743826 0.7617439 -0.28566188 -0.51727337 -0.018085279 0.31438485 -0.6615456 0.70447546 0.35776052 0.79869115
548 0.1499825 0.8743257 -0.07533488 -0.54237616 0.1651361 0.33869088 -0.97954386 0.3862694 0.49437937 0.46338966
1693 -0.4355885 -0.013324654 0.14606708 0.2287163 -0.20100468 1.5121311 -0.78631383 0.6499579 0.41215426 0.59194076
1708 0.12038105 -0.19851676 -0.21973519 0.27268863 -0.102283195 0.9093406 -0.83027834 1.255282 0.32106838 0.40318307
578 0.2414202 0.5747612 0.1301904 -0.66904116 0.06782356 0.28481132 -1.0435978 0.25847098 0.19637674 0.7303005
564 0.0184772 0.77573407 -0.24279584 -0.328432 0.09067722 0.12617126 -0.9918346 0.29575843 0.37921017 0.6480845
1353 -0.047799207 -0.50988066 0.17660788 -0.15264529 0.9596769 1.2250949 -0.5898476 0.5892305 0.23308569 0.30242917
741 -0.13566563 -0.7116783 -0.708484 -0.35908616 -0.24854575 0.44547433 -0.5414629 0.36993366 -0.6030662 0.3235203
2642 -0.4521315 -0.3330442 0.4280092 0.3216131 -0.47566617 0.7336109 -1.1083981 0.66935194 0.3106263 0.27894902
725 -0.5178457 -0.7018227 -0.59127825 -0.43718597 -0.017927434 0.22031808 -0.3584721 0.2164277 -0.48779356 0.61672235
1655 -0.31393692 -0.19817008 0.2174919 0.24935228 -0.06455811 1.171599 -0.858815 0.55079925 0.31664556 0.854701
2346 -0.7147171 0.21332236 -0.4266559 -0.6137891 -1.0468063 -0.2277206 -1.0934749 0.539138 -0.03444896 0.37461105
4731 -0.49645713 -0.42901346 -0.6075488 -0.07399853 0.05552548 0.0002999668 -0.5415156 0.13801005 0.50215197 0.23131417
1842 0.17308865 -0.37887645 0.11073724 0.21483018 -0.30384234 0.77597857 -1.0406382 1.2498037 0.2741439 0.256515
38 0.0032458515 0.7754017 -0.21059467 -0.42183256 0.0433102 0.14665194 -0.99823755 0.2235388 0.35250682 0.559098
765 0.041614726 -0.40219086 -0.7246925 -0.79754055 -0.57193375 0.70204353 -0.63245547 -0.03967341 0.33080935 -0.4261949
1712 -0.38108632 -0.0011734085 0.12601195 0.31728804 -0.20230319 1.4737966 -0.85288984 0.7010232 0.432025 0.52914363
1538 -0.026060538 -0.08742906 -0.081990436 -0.279404 0.23524167 0.9898683 -0.351506 1.361664 0.6256589 0.66159695
1697 -0.31878722 -0.21930431 0.29398897 0.21196823 -0.05599588 1.2693303 -0.86308324 0.5464939 0.2330502 0.8204533
2637 -0.23504691 -0.42225307 0.44606072 0.30934697 -0.38140938 0.7003144 -1.2376263 0.6620726 0.26435712 0.1624231
566 0.07282042 0.6389538 -0.3066809 -0.30104297 0.05148022 0.12910065 -0.9825458 0.26804677 0.25367576 0.65330756
476 -0.7832875 0.26805028 -0.56521857 -0.47025573 -0.81593496 -0.27663505 -1.0336591 0.53122675 -0.097320884 0.30954266
3101 -0.506531 -0.96554923 -0.39335936 -0.39566812 -0.029278487 0.12251042 -0.2865181 0.10974286 0.5687426 0.6722951
1393 0.040145822 -0.63418686 0.22416802 -0.31918788 1.0168557 1.3359616 -0.5419132 0.7329051 0.12597847 0.19234827
764 0.12177989 -0.46414718 -0.6537909 -0.8619446 -0.5739478 0.72408104 -0.6180294 0.015981423 0.32865992 -0.40486807
1798 0.20947292 0.7972291 -0.12688142 -0.5143818 0.103192106 0.44826868 -0.8754019 0.57381696 0.5004654 0.5553477
728 -0.47595543 -0.58932585 -0.7310571 -0.25315228 0.018484961 0.28145865 -0.41878358 0.26814225 -0.6034941 0.59040564
1395 -0.12387798 -0.6057189 0.42239195 -0.4245142 1.1483302 1.1675895 -0.53569716 0.545329 -0.06307535 -0.031242266
1864 -0.01905522 -0.52400416 0.47666863 0.2125748 -0.38156444 0.5312325 -1.206305 0.83873576 0.3139205 0.62816817
1627 -0.5546585 0.1673173 0.0531025 0.07211188 -0.22717313 1.3457996 -0.5759533 0.67849034 0.24381973 0.6913546
2588 -0.5366864 -0.22639191 0.15288018 -0.6418676 -0.27929237 0.04693598 -0.9813395 0.6849261 0.9817166 -0.45621875
1806 -0.26040706 0.6357613 0.17144434 -0.45643228 0.11548078 0.7131456 -0.79724437 0.011695102 1.1002475 0.24804823
1342 0.093477815 -0.5686356 0.17177233 -0.2429985 0.86441845 1.1412882 -0.5644497 0.81928194 0.55244523 0.2613572
3122 0.1272894 -0.58682585 -0.68750036 -0.71295387 -0.6208518 0.7180315 -0.5950114 0.095836975 0.4898184 -0.3553346
3160 -0.29658222 -0.72056895 -0.6540033 -0.18160802 -0.07203071 0.38015896 -0.43573853 0.3965889 -0.40848246 0.6962875
1389 0.15481886 -0.5947706 0.14663662 -0.25432387 0.9014439 1.2721931 -0.5861607 0.9183535 0.13369079 0.23604693
2630 -0.15471911 -0.45059055 0.3927578 0.3111045 -0.3590412 0.4591146 -1.2667809 0.72827226 0.22693592 0.4150973
4977 0.1292889 -0.42738456 -0.5048285 -0.9464962 -0.53278863 0.8560951 -0.64947295 0.0037483326 0.15261397 -0.47237688
3698 -0.3336029 -0.08532317 -0.6005148 0.07709061 0.29948127 0.33542272 -1.408295 -0.17909425 -0.19769713 -0.66378397
461 -1.2581095 0.13941947 -0.2518662 -0.4322549 0.2557905 0.4405657 -0.34016705 0.514759 0.56283 -0.5290011
1565 -0.5175921 0.16150399 0.138108 -0.11374136 -0.09207466 1.3305911 -0.48573533 0.73417526 0.38831446 0.8973351
539 -0.47601455 0.48426047 0.24918166 -0.38020682 0.3672648 0.6535738 -0.7412514 -0.037011206 1.3198906 0.090513766
2664 -0.48310822 0.15636349 0.36684227 -1.123842 0.27691516 0.7222736 -0.71560293 0.67656016 -0.6379848 -0.028648166
1802 0.047819056 0.8241292 -0.0690957 -0.49629477 0.038820248 0.59155965 -0.809281 0.44027594 0.64773655 0.4237488
2645 -0.2638206 -0.2220144 0.29323015 0.34415817 -0.37745747 0.74498695 -1.1608988 0.7774325 0.17406964 0.18955623
1865 0.019379772 -0.4967125 0.47597262 0.21229477 -0.30144 0.43838757 -1.1976296 0.86526936 0.41932127 0.7360064
1727 0.17740318 -0.22415528 -0.1715641 0.1982323 -0.07797147 0.93793327 -0.8249499 1.2579995 0.40086803 0.37532976
2364 -0.7827052 -0.5977341 0.42583373 -0.30733964 0.35190305 -0.36587146 -0.9021111 0.9776069 0.22512229 0.48515958
517 -0.47184893 0.21120103 0.2311863 -1.2082535 0.3487736 0.7074984 -0.6763085 0.6241864 -0.695728 -0.063900165
3063 0.13664158 -0.56426376 -0.7192946 -0.6549176 -0.5632485 0.74081534 -0.60067147 0.051733658 0.49842945 -0.21572845
1581 -0.07228337 0.0469123 -0.22216617 -0.091357775 0.26852292 0.8125386 -0.39432457 1.5741425 0.5499216 0.6326298
1386 0.039121028 -0.6219649 0.31406802 -0.2725133 1.0645736 1.2690558 -0.6361028 0.61093795 0.082116425 0.17840424
1696 -0.35277128 -0.23638426 0.23844695 0.24042831 -0.13058144 1.1748588 -0.8430852 0.5717561 0.3446034 0.8726973
1665 0.13840342 -0.13773003 -0.30797613 0.18562165 0.09178476 0.91774434 -0.72318643 1.3947821 0.22106838 0.5363625
3141 0.20792432 -0.53442687 -0.5552587 -0.8979312 -0.50446796 1.0122588 -0.5450249 0.17407325 -0.15205249 -0.17775369
2854 -0.38781852 -0.95120734 -0.39521313 -0.37428656 -0.08577996 0.17308165 -0.3043489 0.20274812 0.7409426 0.5891898
3144 0.13660538 -0.62414736 -0.65479743 -0.6845926 -0.466794 0.87138194 -0.5789528 0.22578034 -0.49882028 0.08510003
4732 -0.5000799 -0.52696246 -0.66802305 -0.15069139 0.1147754 0.01785981 -0.48966968 0.08315143 0.45772165 0.1424815
3129 0.011774393 -0.40922722 -0.5953762 -0.93611586 -0.5974234 1.0179195 -0.39254996 0.18401305 0.26830518 -0.2997663
556 -0.07924294 0.83597594 -0.26719 -0.6139692 0.059779197 0.29456222 -0.6067211 0.6864449 0.3075467 0.5937188
1698 -0.29442886 -0.21431518 0.23403792 0.23490979 -0.057947557 1.17297 -0.8659099 0.560619 0.23830764 0.85131013
1544 -0.5397844 0.16285011 0.13378872 -0.16150074 -0.13313046 1.3097967 -0.4353663 0.8138217 0.41133043 0.89638114
795 -0.58773994 -0.6433572 -0.2490627 -0.75823647 0.042260423 0.19513765 -0.11201574 0.21677798 0.03846187 0.81105596
1690 -0.44437733 0.04721844 0.06289523 0.27381012 -0.23088492 1.4008794 -0.74525684 0.7189523 0.35966882 0.50727206
2641 -0.38866964 -0.3682557 0.38174912 0.39856607 -0.43636322 0.7106168 -1.1453402 0.6760445 0.3151685 0.2718008
560 -0.16589877 0.84180355 -0.3092068 -0.43379512 -0.00083741755 0.23123032 -0.771825 0.39279106 0.46117517 0.5047412
1543 -0.4938728 0.16625652 0.18067306 -0.24606052 -0.124589056 1.2569227 -0.43659934 0.787766 0.47187293 0.9051237
2997 -0.17076004 -0.6461471 -0.69694954 -0.2848992 -0.30521908 0.5710201 -0.49527714 0.5123831 -0.67409277 0.56881404
4708 -0.55043906 -0.30314818 -0.6937574 -0.08870583 0.15724456 0.052317098 -0.46192676 0.17018643 0.6250219 0.13223882
3156 -0.20046884 -0.6328477 -0.705737 -0.03146011 -0.1579496 0.4261391 -0.62809443 0.27205285 -0.4257893 0.6391525
518 -0.4696184 0.23189145 0.30101416 -1.2055242 0.39483342 0.6638466 -0.7004461 0.57387525 -0.6041582 -0.024461893
3137 0.20487373 -0.6260871 -0.574072 -0.9160685 -0.5529548 0.95480824 -0.5303932 0.11442139 0.22739844 -0.3142957
2646 -0.28660566 -0.22761682 0.36986083 0.3405173 -0.3098826 0.64356446 -1.1573707 0.8502235 0.19094095 0.28970116
4916 -0.4892771 -0.41643167 -0.71778345 -0.051628232 -0.058676854 -0.042292256 -0.5520507 0.16372207 0.64895326 0.14095032
2385 -0.78115326 0.17239238 -0.42765188 -0.61124814 -0.97415453 -0.22541091 -1.1266143 0.49380386 -0.08003542 0.30666178
3163 -0.42282927 -0.6766758 -0.5394488 -0.3778289 -0.09533758 0.29985 -0.40088305 0.15472794 -0.3392792 0.7620676
1551 -0.12877151 -0.03328101 -0.098904714 0.35651502 0.031706877 0.9202027 -1.0083394 0.45444003 0.23973659 0.9437612
3108 -0.27889463 -0.7988777 -0.6503365 -0.102607965 0.07794487 0.14199556 -0.44369274 0.25544924 0.7559176 0.27703
535 -0.23973924 -0.020555068 0.39943543 -0.33529165 0.7589277 0.7599638 -0.8214075 -0.07067522 1.111613 -0.1435766
471 -0.8731014 0.28560957 -0.8169615 -0.14530836 -0.13726375 -0.11667152 -0.66878736 0.97430134 0.0085270805 -0.14421988
207 -0.6862817 0.19469778 -0.6021641 -0.6941565 -0.9912943 -0.34912705 -1.0643086 0.2971304 -0.08464896 0.43741134
2365 -0.8177933 -0.45442617 0.3996804 -0.3100543 0.3419839 -0.43602347 -0.9863764 0.9471934 0.17796546 0.5575763
796 -0.55390126 -0.5501159 -0.24920294 -0.7545945 -0.006358309 0.23874785 -0.116577126 0.27426076 -0.010014363 0.84831727
3013 -0.12304841 -0.7873236 -0.66119623 -0.40583456 -0.2950701 0.6147722 -0.44855988 0.49268526 -0.6680187 0.6597629
1311 -0.3771385 -0.23199186 0.27348426 0.29137176 -0.09978453 1.2224056 -0.91515577 0.50833476 0.25359994 0.9592514
47 0.20480387 0.7114454 0.04076614 -0.5827938 0.0501139 0.31012154 -1.1210176 0.13605492 0.23297028 0.64848596
2654 0.018570647 -0.11413912 0.22763644 -0.31831756 -0.23224057 0.6432918 -0.951405 1.2673755 -0.2825142 0.10597117
2246 -0.8443607 0.27024147 -0.38815305 -0.73552334 -1.057392 -0.12248306 -1.0028952 0.48464954 -0.14522657 0.42370945
1766 0.15838327 -0.4939666 0.48854023 0.020855438 -0.20765558 0.48945493 -1.0791123 0.91056454 0.45380345 0.9125855
3092 -0.5762483 -0.65813047 -0.22889374 -0.67690986 -0.054476116 0.38355777 -0.03700554 0.4271234 0.06972338 0.8801583
787 -0.5492307 -0.89436 -0.45002013 -0.46476498 0.060387805 0.06856037 -0.24260639 0.100743845 0.46259043 0.5498444
1850 -0.29450637 -0.29113975 0.38165292 0.38333338 -0.44541493 0.9251669 -1.1048516 0.74662113 0.4265941 0.3397447
1381 0.16914003 -0.6216392 0.0960417 -0.28655937 1.003685 1.2394522 -0.5800327 0.9503831 0.17969534 0.3148753
1912 -0.13184533 -0.45836613 0.39040545 0.3158159 -0.37539232 0.491369 -1.3234593 0.66261005 0.285827 0.26775724
3130 0.13502327 -0.40409818 -0.5711423 -1.0152354 -0.70552933 0.99770284 -0.45215827 0.21042104 0.2383539 -0.24722041
1390 0.12538323 -0.63018024 0.16278979 -0.23234677 0.9184864 1.2894467 -0.58116066 0.9162279 0.18583696 0.27114898
3070 0.15407604 -0.48435062 -0.573206 -0.8558962 -0.6423304 1.1167195 -0.5230867 0.18849719 0.23713851 -0.29184312
3154 -0.09065096 -0.8242661 -0.70111036 -0.09448918 -0.15453666 0.50895417 -0.664489 0.36328903 -0.69445705 0.46680215
750 0.21889058 -0.48400128 -0.58151203 -0.9805832 -0.49974218 0.8419956 -0.5675006 0.11831584 0.024590667 -0.34067053
4778 -0.37308475 -0.6071567 -0.71791464 -0.12260591 0.18184374 -0.1377386 -0.58482134 0.14849962 0.7665578 -0.027671965
3257 -0.17308174 -0.44228995 -0.27664363 -0.45040858 0.5126527 -0.10792812 -0.9910139 0.26130444 -0.8474468 0.4511263
550 0.11063994 0.83574325 -0.19369122 -0.475857 0.117831744 0.29868078 -0.8454372 0.6091192 0.52464545 0.49909922
1773 0.30038437 0.76377326 -0.011892584 -0.4796558 -0.024644494 0.514458 -1.1377426 0.2687331 0.29998088 0.7236326
1845 -0.098046124 -0.2901415 0.2645578 0.30726367 -0.4120901 0.7719425 -1.1330451 0.92329144 0.2728017 0.27229112
1849 -0.2652036 -0.240688 0.34911552 0.41790622 -0.36690524 0.910697 -1.1162263 0.81202954 0.28490806 0.36864647
577 0.27561948 0.63176554 0.09141845 -0.6537761 0.03902256 0.33523077 -1.0746737 0.24699897 0.2570336 0.6819111
1666 0.07929437 -0.04305484 -0.28537646 0.29683998 0.026405713 0.95274824 -0.79812074 1.3291675 0.27650422 0.4513424
1756 -0.34706265 -0.20985772 0.3400853 0.34648526 -0.42388418 1.1023104 -0.9683351 0.7555168 0.44001734 0.46060428
2998 -0.26553378 -0.84820735 -0.59656143 0.030341454 0.017587386 0.06316342 -0.57078487 0.22270514 0.9134572 0.22513741
3069 0.16027936 -0.5458187 -0.6065186 -0.9483341 -0.60810804 1.0966218 -0.4416402 0.17786162 0.15683985 -0.2669988
1523 -0.50116503 0.1722609 0.18842112 -0.1887265 -0.1356067 1.2865981 -0.45284578 0.8181616 0.450587 0.8735919
1692 -0.38175952 0.0811947 0.040977925 0.2854431 -0.1757815 1.4423805 -0.83421826 0.6608785 0.38706604 0.56594616
3149 -0.233568 -0.60790884 -0.70983297 -0.26754737 -0.17643762 0.62780535 -0.4415061 0.44601253 -0.7256381 0.63702935
547 0.1381114 0.87824726 -0.0019245603 -0.5659708 0.11910841 0.40402701 -0.9998278 0.35880607 0.42384 0.4171336
1687 0.1579933 -0.08157555 -0.38954896 0.19599308 -0.05877166 0.8898833 -0.7585019 1.3360442 0.3204513 0.41087264
31 -0.0555762 0.7200405 -0.2303093 -0.6435154 0.20135017 0.23340702 -0.60290915 0.55162627 0.29237604 0.698115
1781 0.21244253 0.5929664 -0.33802292 -0.19058168 0.03576543 0.361818 -0.994183 0.3681086 0.38354173 0.7511233
2891 -0.32970887 -0.49747163 -0.58058465 -0.09495009 -0.07585219 0.5462319 -0.34254378 0.46321353 0.59507114 0.40272784
776 -0.23367074 -0.84361404 -0.5837311 -0.08568316 0.13570282 -0.0274825 -0.69035536 0.045934997 0.8684421 -0.072592996
231 -0.7048261 0.31354156 -0.52273184 -0.55818295 -0.96435606 -0.2325731 -1.0872309 0.29715285 -0.14163895 0.42859304
3089 -0.6596419 -0.6683226 -0.08408358 -0.9010469 -0.123353116 0.3403378 0.004935424 0.3299504 0.15197277 1.0125828
1774 0.2805043 0.7443523 -0.0562894 -0.4835712 -0.04783619 0.48721805 -1.0584075 0.34325573 0.29620054 0.829301
4950 -0.51526606 0.18093207 0.003667142 -1.531238 0.34566778 -0.3679092 -0.66210115 -0.13715929 0.48141837 0.5213642
1852 -0.24830379 -0.38129872 0.4204263 0.41774985 -0.35648116 0.87342745 -1.1534188 0.7327126 0.40316048 0.3309044
3100 -0.5067115 -0.89225966 -0.36060542 -0.46091926 -0.0027807928 0.16704199 -0.25251925 0.10377402 0.50079095 0.61195093
464 -1.0673338 0.030492418 -0.54229957 -0.26838934 0.022032844 0.37670943 -0.20065814 0.7252666 0.3697581 -0.33115172
3077 0.15902452 -0.61279655 -0.66494644 -0.64030176 -0.52564406 0.8835521 -0.64079034 0.2471838 -0.44027278 0.022839135
467 -1.0103079 0.016095845 -0.73395896 -0.16892727 0.11745511 -0.022637278 -0.39740947 1.1098758 0.13036568 -0.279446
3145 0.03638111 -0.6592709 -0.7185876 -0.5565715 -0.45718247 0.7610665 -0.57546705 0.2516078 -0.5287547 0.14121386
1784 0.02400309 0.67230946 -0.13234398 -0.28211638 0.021484328 0.31742522 -0.9081046 0.43651944 0.5125775 0.73810416
1757 -0.20702806 -0.34689566 0.34488013 0.35976472 -0.3458302 0.9733656 -1.0539914 0.6676201 0.47334847 0.50753367
4752 -0.6286113 -0.31839067 -0.68527883 -0.09810413 0.12238976 -0.03680075 -0.49969038 0.16066372 0.6556491 -0.020622063
2899 -0.4032477 -0.4901591 -0.5442831 -0.079421565 -0.041581605 0.62574214 -0.31856003 0.46323687 0.31380555 0.5694713
2720 -1.2188104 0.038138006 -0.3404143 -0.29232407 -0.0051788664 0.48477128 -0.295227 0.5956719 0.55292934 -0.4502657
837 -0.33718777 -0.23573561 0.36499175 -0.8532545 1.0230135 0.7934545 -0.5857527 0.36656436 -0.44291583 -0.10633814
1441 -0.09242347 0.33401895 -0.02455724 -0.483888 0.054746334 0.77256036 -0.42605937 0.8836275 0.49276784 0.9104611
2626 -0.116033785 -0.42293623 0.5710109 -0.04272887 -0.24372123 0.21607524 -1.0700095 0.92015433 0.29863033 0.8085302
1862 -0.05120298 -0.57884526 0.43059468 0.31197187 -0.42171717 0.62350297 -1.2686393 0.7800592 0.29693753 0.3605309
3659 -0.458034 -0.14878929 -0.4726074 0.09476296 0.27696458 0.38887605 -1.4362742 -0.23239477 -0.23407678 -0.6620798
1897 0.025755871 -0.21782626 0.21659887 -0.004711863 -0.32125017 0.56025106 -1.1464835 1.186115 -0.1059301 0.12262673
1854 -0.27300858 -0.40155792 0.48875102 0.39465696 -0.46083972 0.89109385 -1.159628 0.7243492 0.46630242 0.4557984
55 -0.5857645 0.9041572 -0.75552386 -0.48480153 0.047297522 0.62482953 -0.9751508 0.18577817 -0.10511368 -0.7420638
1428 0.3510741 0.45562103 0.02756881 -0.41711703 0.008559704 0.6575411 -1.0210141 0.42940825 0.21574591 0.85862654
780 -0.4050669 -0.7147249 -0.6201214 -0.11491508 0.122392 -0.03421265 -0.48539937 0.2143649 0.6773458 0.10339859
576 0.25932023 0.6436094 -0.013709572 -0.6318135 -0.0417599 0.32225245 -1.0619712 0.17973825 0.22884221 0.7054844
1425 0.22503278 0.46408457 -0.067887425 -0.2461509 0.023416389 0.60671985 -0.9876106 0.43459916 0.3532841 0.7600192
474 -0.8398648 0.40874502 -0.79733974 -0.27289265 -0.5971699 -0.17620161 -0.89079607 0.71774906 -0.082463965 0.038128875
2959 -0.42522022 -0.5552612 -0.56980217 -0.12820186 -0.17330979 0.6640466 -0.27787307 0.44235516 0.44531766 0.3651195
2915 -0.3510419 -0.41631863 -0.5435306 -0.041177806 -0.12045622 0.66759104 -0.40743464 0.42442533 0.28930023 0.5852664
2672 -0.6684879 -0.011586254 0.2888573 -0.94076127 0.15208144 0.6554508 -0.6752895 0.7269188 -0.61668855 -0.021224918
3164 0.20682494 -0.3441255 -0.35525844 -0.7193066 0.4751286 -0.40701824 -1.2684052 0.1614213 -0.668239 0.4002977
3093 -0.53145844 -0.6797846 -0.21934171 -0.74007076 -0.034537066 0.3473139 -0.06580178 0.27366385 0.16021717 0.93508357
4969 0.05272668 -0.41092992 -0.67925924 -0.8731035 -0.58780736 0.5829383 -0.6936752 -0.039397318 0.31475705 -0.448002
3148 -0.17735663 -0.7610632 -0.6116682 -0.25567636 -0.18381709 0.54532295 -0.46612108 0.44808194 -0.50057226 0.5768977
477 -0.729928 0.28150746 -0.5890106 -0.6210693 -0.8860603 -0.29155245 -1.0940613 0.33139363 -0.09455457 0.32079262
1753 -0.24439216 -0.14710273 0.19728954 0.3751642 -0.31197706 1.0958484 -0.96547824 0.8754595 0.29680216 0.39627704
3120 -0.14986886 -0.7556949 -0.71747905 -0.24338757 -0.38345087 0.37957603 -0.57623667 0.14415416 0.65971595 -0.043386854
777 -0.27972177 -0.8466 -0.56344205 -0.012193337 0.08473723 -0.06395501 -0.7195641 0.037163008 0.9573504 0.011608013
759 -0.0259089 -0.3126604 -0.60992444 -0.8771261 -0.67767286 0.8858739 -0.537853 0.14731507 0.10897663 -0.39857545
4125 -0.6317207 -0.07034088 -0.58270484 -0.06157963 0.6438519 0.19933116 -0.39032242 0.617478 -0.458207 0.38151953
1185 0.50422597 -0.5963797 0.34745407 -0.17087753 -0.14079326 0.5398594 -1.1839688 0.70225626 0.7006483 1.087373
1772 0.32650468 0.693881 0.062222563 -0.48577982 0.0062008603 0.501125 -1.1082292 0.3706405 0.30527377 0.72344345
469 -0.8997557 0.11083476 -0.83120376 -0.013831091 -0.14276196 -0.15542105 -0.57179856 1.018669 0.18886405 -0.13126823
3658 -0.34529224 -0.16138206 -0.47922206 0.025314845 0.31511453 0.37277037 -1.4046297 -0.15102914 -0.22901236 -0.69716084
195 -0.7125678 0.28324872 -0.5416473 -0.814568 -0.84721506 -0.2975167 -1.065562 0.25488254 -0.13476044 0.36053902
1841 0.18004796 -0.30737135 0.18162584 0.08731323 -0.3302178 0.72405833 -1.0707755 1.1817309 0.07705952 0.29732254
1856 -0.10700046 -0.42080742 0.47145465 0.3266746 -0.42463353 0.78922117 -1.2436953 0.72236776 0.40523496 0.36552876
1566 -0.5672414 0.14798464 0.17438783 -0.11319739 -0.14661258 1.3852379 -0.47883093 0.7750571 0.38607627 0.9376973
2925 -0.37411526 -0.38759202 -0.4853631 -0.21283765 -0.022928422 0.5814056 -0.26638865 0.5040407 0.37562212 0.52311045
2384 -0.8390743 0.23278117 -0.5434403 -0.4395559 -0.85166466 -0.19511561 -1.0216112 0.66520464 -0.080179185 0.17102307
3138 0.13905296 -0.5810591 -0.5040028 -0.93306 -0.5526997 0.9597079 -0.5459862 0.051448215 0.11560446 -0.2643537
1450 0.04060693 0.064601995 -0.33309445 0.024042677 0.026748711 0.5468269 -0.81992775 0.45513397 0.3441846 0.7877
1782 0.13126224 0.52950037 -0.268553 -0.21753465 0.15513663 0.33798432 -0.9052251 0.39082298 0.33972043 0.8178997
2185 -0.8572541 -0.2109954 0.30681583 -0.25696507 0.32462934 -0.40611953 -0.9077397 0.9188866 0.27887708 0.5134026
3146 0.0033557396 -0.7416223 -0.6978397 -0.4560497 -0.42126927 0.6534785 -0.5966191 0.32001486 -0.62481475 0.28617674
1444 -0.16727985 0.48406506 -0.069730565 -0.38404194 -0.022515109 0.77194613 -0.4725779 0.87630755 0.5517454 0.8529727
1846 -0.14003594 -0.31408465 0.32304066 0.31635445 -0.39402434 0.7328808 -1.136209 0.86162394 0.27032146 0.37877256
219 -0.6596793 0.21590106 -0.5479843 -0.5970374 -0.93926215 -0.2969409 -1.1102585 0.29033017 -0.094158754 0.44565812
1748 0.1585361 -0.2987794 -0.081782945 0.21757337 -0.14015667 0.7868781 -0.8734583 1.2323834 0.31549248 0.4249939
793 -0.62271583 -0.7521731 -0.10116733 -0.8410616 -0.0030235369 0.10307367 -0.14984216 0.11640178 0.17842214 0.84269994
1829 0.19541745 -0.25266773 -0.28490874 0.00042547035 0.75834733 0.7101685 -0.5534708 1.2852197 0.50304234 0.3687088
1416 -0.10267086 0.5751868 -0.1992782 -0.33356905 0.009288389 0.6332921 -0.57352203 0.7541164 0.56581485 0.78052604
2844 -0.49941146 -0.60524285 -0.28882113 -0.589228 -0.05233732 0.389981 -0.12158534 0.36151332 0.21967268 0.8789466
2931 -0.37250328 -0.25925922 -0.51945704 0.0090704365 -0.15397444 0.65386564 -0.44895664 0.43709344 0.2775209 0.5789852
809 -0.5772809 -0.8632303 -0.41104707 -0.65673316 -0.032674234 0.17157939 -0.24796097 0.13146791 -0.3836666 0.68448013
1398 0.13802627 -0.6111987 0.18656363 -0.28607237 0.9077067 1.2338563 -0.56946164 0.9135908 0.23613283 0.28984112
4891 -0.72172505 -0.19712108 -0.7458636 -0.019650156 -0.01770784 -0.009428884 -0.6144223 -0.012416029 0.6523652 -0.020663645
1361 -0.23436867 -0.60163 0.184164 -0.043251526 1.0456356 1.1834129 -0.527407 0.5864929 -0.063059166 0.3054834
1867 0.0016525644 -0.36124 0.53386444 -0.058335572 -0.3239152 0.40389004 -1.0328491 0.98689413 0.40428132 0.95556015
1907 -0.4021303 -0.42585993 0.42494398 0.3279873 -0.47117725 0.6131307 -1.166688 0.61186934 0.2916227 0.33456606
4662 -0.6629764 -0.4460559 -0.64307165 -0.08142738 0.17562976 -0.12955593 -0.5267888 0.06312769 0.8272109 0.07068071
1769 0.4012574 0.50693434 0.1497006 -0.6240117 0.026994685 0.56748843 -1.0536344 0.34948945 0.2831078 0.78246605
2375 -1.1407139 0.025310079 -0.38551375 -0.25492543 -0.11479372 0.3862553 -0.2733096 0.7156795 0.46945095 -0.2712332
800 -0.7348539 -0.68027586 -0.05296699 -1.038409 0.069662966 0.22298346 -0.024970725 0.12087662 0.04607007 0.9210737
4968 0.082328424 -0.45268723 -0.68950117 -0.76987725 -0.47457165 0.40414348 -0.7073283 0.0130326105 0.38673595 -0.4024831
1747 0.17603564 -0.30199805 -0.04102524 0.17413887 -0.16738026 0.853559 -0.8685243 1.3190398 0.25145644 0.33320183
736 -0.23834375 -0.6703405 -0.6319758 -0.18698715 -0.17806768 0.42760667 -0.65412825 0.37149677 -0.822205 0.43024632
2843 -0.47885618 -0.6748408 -0.25842044 -0.671682 -0.09269947 0.4261307 -0.06265062 0.41263303 0.22168387 0.90437365
1459 0.47396928 -0.02505854 0.1992732 -0.46348703 -0.17157567 0.693892 -1.0176038 0.5570978 0.48775354 0.9075413
4597 -0.516471 -0.13756397 -0.91128147 -0.252834 0.069989905 -0.13866635 -0.45190257 0.42390338 0.13189308 0.11569658
1752 -0.18811958 -0.19482306 0.22113118 0.35927573 -0.32560718 0.9492351 -0.9881929 0.8896986 0.27073774 0.49379593
1768 0.37914225 0.360955 0.3031872 -0.6948015 0.027004417 0.41423965 -1.0660254 0.31254292 0.253353 0.74154985
2994 -0.49900907 -0.5547299 -0.5111499 -0.1171413 -0.30970827 1.0326989 -0.24525289 0.49811321 0.48423472 0.2681928
1905 -0.36976972 -0.3429242 0.40558374 0.33685666 -0.3885678 0.6200358 -1.162538 0.7528358 0.32080796 0.23234798
1859 -0.059544023 -0.4275907 0.37591922 0.445123 -0.38346636 0.8223692 -1.2923732 0.81072617 0.433854 0.20502475
791 -0.62900686 -0.943494 0.017804729 -0.7923282 0.007395773 0.14146243 -0.23898995 -0.024126489 0.24798635 0.7245266
1345 0.06411467 -0.5550779 0.3052357 -0.3109864 0.97831535 1.1517341 -0.6108152 0.56534296 0.5165033 0.24887648
769 -0.282233 -0.643559 -0.76084816 -0.003199993 -0.21882454 -0.015550299 -0.693016 0.1395296 0.74193305 0.035685696
4663 -0.6456402 -0.5748611 -0.56817883 -0.17183095 0.1288915 0.002961709 -0.3924887 0.14415233 0.7260633 0.13686918
1866 0.10296452 -0.4497906 0.4736243 0.053061347 -0.22248487 0.32723135 -1.1137708 0.942814 0.34669772 0.8780307
1334 0.117233746 -0.5746685 0.21449304 -0.3708082 0.80270344 1.104777 -0.50885034 0.9191525 0.7084671 0.3597133
2965 0.006602772 -0.75118685 -0.7026374 -0.05853217 -0.1653485 0.6057395 -0.717873 0.36954954 -0.6854918 0.46972704
534 -0.2515539 -0.28381327 0.43843898 -0.3104928 1.0206975 0.8106779 -0.7611267 -0.03663343 0.8002187 -0.13299425
2840 -0.50184965 -1.0163779 -0.03262612 -0.8167944 -0.13716836 0.35848245 -0.14828911 0.10879983 0.33062482 0.86896974
3076 0.20083031 -0.65615165 -0.64150596 -0.82935184 -0.51112795 0.98853 -0.5104896 0.16307198 -0.12156108 -0.0023261898
1530 -0.047617543 -0.042827748 -0.03995164 0.29518637 0.0768779 1.0329664 -1.0269995 0.4637102 0.1776781 0.85785425
1541 -0.20910059 0.08306481 -0.025168018 -0.2696613 0.097026035 1.0163249 -0.35570517 1.2119277 0.52568275 0.84441274
2884 -0.30890825 -0.5312876 -0.5459629 -0.18266413 -0.1501292 0.6155059 -0.3697848 0.40764758 -0.07822723 0.61057615
3110 -0.16768117 -0.91020787 -0.50641024 0.053322595 0.05015278 0.14420311 -0.70569223 0.09829915 0.9686841 0.19466832
26 0.15482561 0.82370627 -0.087726146 -0.66372746 0.16499874 0.3407592 -0.90614057 0.37355492 0.43651807 0.39801136
1556 0.47274455 -0.35161704 0.32019365 -0.37752217 -0.19963779 0.7931528 -1.0847886 0.6115922 0.55747 1.0630403
1661 0.42573285 -0.5111738 0.28285372 -0.17564958 -0.088747725 0.64242023 -1.0797086 0.6993722 0.6002062 1.0767913
4643 -0.49339384 -0.3453325 -0.8598399 -0.277229 -0.08105158 -0.1363771 -0.46454334 0.37654552 0.07522177 0.21078886
4707 -0.38225812 -0.34100723 -0.6025989 -0.09815999 0.21841992 0.015591634 -0.5256229 0.26353195 0.55063224 0.19855626
4974 0.0030031377 -0.3160915 -0.6065736 -0.9998525 -0.55054605 0.85008436 -0.4719156 0.14852875 0.21926259 -0.45988324
4165 -0.68047124 -0.037090104 -0.5155577 -0.07619641 0.6115326 0.24058254 -0.43836546 0.6103006 -0.5609125 0.41250476
1187 -0.45443884 -0.08022543 -1.1314821 -0.45806754 0.45554197 -0.29074553 -0.46553418 0.7756985 -0.18793586 -0.19100545
1580 0.03522219 -0.03551212 -0.16466695 -0.12964825 0.3978422 0.84682065 -0.4306248 1.5033387 0.54711235 0.57900643
3136 0.17215303 -0.5301484 -0.53794277 -0.9290878 -0.62385494 0.97772115 -0.5300434 0.13290136 0.20622039 -0.2949675
1765 0.079021655 -0.5388941 0.35830972 0.23157382 -0.18030186 0.6037825 -1.0856014 0.8758669 0.4091663 0.7669916
4737 -0.21500254 -0.31563896 -0.6548986 -0.5594081 0.5148386 -0.20601627 -0.39209798 0.6969853 -0.03179639 0.20723303
4970 0.0030627414 -0.34971386 -0.6632822 -0.9455713 -0.52502036 0.6205077 -0.5787979 -0.020967752 0.26042816 -0.38987422
1539 -0.099329464 0.10970632 -0.16381396 -0.2110949 0.1595313 0.8632256 -0.37039146 1.397099 0.51160324 0.70003486
2652 0.13546462 -0.31573063 0.24045488 -0.0010461124 -0.32714534 0.5798513 -1.1531906 1.1354117 0.011867141 0.14706992
56 -0.6369928 0.9547574 -0.80736244 -0.5591349 0.05828337 0.57822526 -0.8792178 0.21924387 0.0045257164 -0.74721336
4801 -0.40158513 -0.59201103 -0.68286103 -0.08588536 0.2161726 -0.14981072 -0.5720109 0.21414825 0.7382909 -0.0070558987
1654 -0.26744398 -0.24894296 0.20715977 0.13241774 -0.115518905 1.1616455 -0.8006081 0.60867137 0.33223465 0.86478376
35 -0.099429294 0.8533576 -0.2994616 -0.52877957 0.03909306 0.24154001 -0.8130106 0.28731987 0.41071224 0.4216903
2879 -0.3891284 -0.4149772 -0.44399673 -0.0576347 -0.16333614 0.6864254 -0.3655638 0.5078385 0.35733792 0.6291142
4567 -0.63028383 -0.77981853 -0.14075798 -1.0111895 0.0024738007 0.13458358 -0.17471673 0.026650218 -0.05830301 0.71487236
1916 -0.23074695 -0.4096037 0.49308988 0.11438573 -0.124572046 0.088983044 -1.1304705 0.9236352 0.26812705 0.69717896
4979 0.10888893 -0.40523055 -0.57756627 -0.9057758 -0.4995178 0.75456375 -0.6097987 0.082470946 0.07429076 -0.40241158
2893 -0.4024234 -0.34894115 -0.4384952 -0.24543765 -0.0657941 0.6125523 -0.2354816 0.54655147 0.29164848 0.5989314
841 -0.49150035 0.23484509 0.260551 -1.1120818 0.4269682 0.70807433 -0.6635183 0.5032272 -0.6139306 -0.021286035
1357 0.023489293 -0.44627038 -0.032589696 -0.20845482 0.88256085 0.85522413 -0.42582995 0.9154278 0.2876658 0.37244886
1746 0.24459669 -0.4552518 0.39026603 -0.09121721 -0.2940887 0.58564633 -1.0721791 0.8153075 0.5875831 0.9098358
1717 -0.30699202 -0.2697336 0.18776909 0.23545092 -0.093395524 1.1676071 -0.847273 0.50573504 0.3250019 0.72420436
2653 0.081265055 -0.17790532 0.22659825 -0.08485356 -0.29981932 0.63416666 -1.0961735 1.1654382 -0.12569799 0.12075145
1431 0.4568959 0.25623202 0.20896922 -0.54403526 -0.055207524 0.5272411 -1.0684571 0.43125755 0.35186616 0.90665823
1682 0.440659 -0.5108002 0.27809224 -0.18073931 -0.14820135 0.5925265 -1.0952494 0.69100636 0.67875314 1.0103985
1914 -0.16063593 -0.507273 0.425616 0.23265365 -0.4022266 0.42220742 -1.2562878 0.7872944 0.16092984 0.43422747
2650 -0.028442087 -0.23176742 0.17299429 0.2538326 -0.41785318 0.6084802 -1.1742285 1.0534838 0.17626251 0.14099728
1333 0.05695821 -0.5425446 0.15425535 -0.34738857 0.7702732 1.0689329 -0.43494835 0.95781237 0.7832121 0.29485545
1813 -0.2827779 -0.077595256 0.49875998 -0.2759723 0.72410876 0.9066952 -0.77172846 0.012226427 1.1599983 0.034650717
1761 -0.0740302 -0.34056813 0.30407277 0.35664585 -0.2967887 0.8412232 -1.1310947 0.7361863 0.32981494 0.5052839
1516 0.00010426897 -0.09518969 0.051513933 -0.4017583 0.320866 0.965932 -0.34338775 1.3091604 0.69643545 0.60525507
3087 -0.6242507 -0.7652529 -0.063352495 -1.0018897 -0.020124132 0.4571294 0.016313741 0.17330718 0.1400253 0.9500329
1582 -0.14927812 0.009337172 -0.3386023 -0.02036478 0.2500815 0.7301036 -0.35283795 1.3695064 0.54733914 0.6076959
1758 -0.22250022 -0.40058842 0.40728512 0.34052786 -0.2624844 0.9462162 -1.0266538 0.72387916 0.44597018 0.55590147
808 -0.54926056 -0.8748106 -0.31358835 -0.7824972 -0.105062805 0.2042182 -0.26302624 0.010199174 -0.31623113 0.80763745
32 -0.08958016 0.82788 -0.1966714 -0.593568 0.039521873 0.22144428 -0.7296934 0.5184636 0.29044443 0.62193197
724 -0.54641193 -0.6501311 -0.4749012 -0.551618 -0.054153983 0.17193286 -0.3521093 0.12833835 -0.3724775 0.6608737
133 -0.9833133 -0.0073106876 -0.12036472 -0.9514645 0.6047213 0.5590996 -0.3243518 0.0017399618 0.16997337 -0.4453326
3097 -0.54085875 -0.9997491 -0.010264774 -0.736605 -0.16188383 0.4189583 -0.18963945 0.021037653 0.3632672 0.86591387
4983 0.05624693 -0.475716 -0.6774451 -0.8487125 -0.48399112 0.77061486 -0.6405783 0.0912534 -0.3632708 -0.29345888
3029 -0.07522716 -0.7834195 -0.6778014 -0.26794276 -0.31774077 0.5601277 -0.5083938 0.49049032 -0.46582448 0.5414444
2835 -0.5176773 -1.0518262 0.16550426 -0.8328223 -0.24349782 -0.0035986877 -0.8862541 0.54129326 0.30525297 -0.2754801
540 -0.39779243 0.5571644 0.20131238 -0.34642026 0.32325536 0.53017026 -0.8385751 -0.027317993 1.2655197 0.075950816
2887 -0.27017245 -0.5661378 -0.54171646 -0.14152 -0.030440694 0.49869537 -0.3464357 0.4364481 0.57567996 0.40239698
153 -0.826761 0.5287508 -0.5105236 -0.8561297 -0.32983702 0.451442 -0.44138172 0.18012254 -0.36958915 0.27619687
2909 -0.40248227 -0.33155522 -0.523325 -0.2411299 -0.028719652 0.60993 -0.2081169 0.5719241 0.30056077 0.57759666
1738 -0.26379138 -0.29980683 0.2806872 0.29867196 -0.1653507 1.045529 -0.9018089 0.6900745 0.32693708 0.7059717
1913 -0.16269827 -0.5141307 0.39127406 0.29163116 -0.36181772 0.44159102 -1.2658443 0.78083897 0.16059256 0.34424388
3695 -0.5673945 0.25452062 -0.6402033 -0.86096257 0.23833178 0.1719451 -0.15729381 0.55558103 -0.01783715 0.14238885
733 -0.19456594 -0.68736136 -0.7796873 -0.09682887 -0.16462559 0.3338808 -0.6789315 0.26294824 -0.6533777 0.41785368
2947 -0.34967244 -0.38634062 -0.55326295 -0.026881505 -0.15705656 0.7786683 -0.40399265 0.48248458 0.20453086 0.5242296
3152 -0.14850746 -0.8175178 -0.69685763 -0.12306841 -0.23984267 0.55627257 -0.6125317 0.48735404 -0.7808285 0.48287314
4562 -0.74439675 -0.5522423 -0.13640772 -0.9205437 0.1794039 0.17018566 -0.07675097 0.16641244 -0.05808864 0.7892837
4978 0.10415368 -0.3582342 -0.54860514 -0.9896546 -0.53164744 0.8186546 -0.59173155 0.03432662 0.14263603 -0.41264218
4982 0.15190086 -0.4503107 -0.57673055 -0.94828856 -0.4910579 0.8153167 -0.6349617 0.070965625 -0.12067595 -0.40099648
3284 0.015257607 -0.31256515 -0.21886809 -0.63402534 0.57352436 -0.34034863 -1.2518176 0.16477874 -0.77028626 0.4409507
4730 -0.460655 -0.20467278 -0.6531779 -0.113639615 0.29407018 0.030245347 -0.5415983 0.19330297 0.51702905 0.05998515
801 -0.70296407 -0.70263165 -0.009707215 -0.97940415 0.011570585 0.28640544 -0.05809295 0.16804838 0.026064962 0.8845907
1341 0.11669649 -0.4778618 0.03693108 -0.24651322 0.88609415 0.9684872 -0.48297018 0.9368839 0.61592245 0.2547777
3155 -0.10450282 -0.7219627 -0.7559814 -0.06879854 -0.21733312 0.51544195 -0.6562286 0.33668804 -0.6148383 0.54333556
2802 -0.76313967 -0.68848187 0.3834168 -0.334366 0.21646303 -0.3532265 -0.9120717 0.8293481 0.16073987 0.48137257
1579 0.15512499 -0.16938844 -0.16888283 -0.13271265 0.6060731 0.84108686 -0.47820094 1.493085 0.5737346 0.4466417
2640 -0.36419734 -0.34747148 0.44624597 0.3633864 -0.3562786 0.6864484 -1.1890414 0.6582557 0.26473132 0.2722227
4980 0.17286539 -0.4707714 -0.6139882 -0.93789756 -0.53438723 0.7638883 -0.62739354 0.052660484 0.039483193 -0.358059
1908 -0.3598499 -0.35290247 0.42133972 0.2747092 -0.45449275 0.58145046 -1.2300277 0.6479078 0.30698228 0.18373854
1709 0.09508429 -0.16169073 -0.25487125 0.27728063 -0.048839446 1.0338193 -0.8254319 1.1867677 0.29234493 0.47549307
1359 0.1233758 -0.5307876 0.14594826 -0.2619517 0.78273654 1.3163382 -0.57875854 0.875148 0.22988223 0.38303018
1424 0.19685069 0.46159452 -0.086894006 -0.116457164 -0.005243539 0.5177811 -1.047575 0.40723112 0.3944503 0.7414446
1517 -0.1115564 -0.019774372 -0.07121387 -0.35189083 0.12018239 0.97230506 -0.31494042 1.3103609 0.6453399 0.74640226
3095 -0.5455319 -0.82229316 -0.08634289 -0.7582471 -0.02633601 0.3224217 -0.1350358 0.116467334 0.2589231 0.92601186
49 0.24469756 0.5826661 0.04435329 -0.6906343 0.12616912 0.18362463 -1.0915498 0.16471413 0.18298522 0.6232779
156 -0.87561244 0.6258618 -0.61870253 -0.9430353 -0.4338691 0.20886298 -0.6770724 -0.02323591 -0.385829 0.3055405
812 -0.6477194 -0.25909424 0.04475122 -0.7684328 0.08811105 0.10386387 -1.169538 -0.8216853 -0.012485186 0.21170834
3530 -0.64705175 -0.2689768 0.06925664 -0.58766335 -0.049754467 0.2542525 -1.2847197 -0.65341717 -0.26689222 0.061948597
4685 -0.5592595 -0.4567279 -0.6953006 -0.046302475 0.1470877 -0.10312642 -0.59627444 0.009102643 0.68917 0.12616234
2639 -0.3401896 -0.3478072 0.4562278 0.3497796 -0.4321586 0.75163794 -1.1799033 0.6511966 0.3732089 0.28190944
1915 -0.2400956 -0.52129346 0.4867536 0.16393429 -0.3391237 0.32438183 -1.2129732 0.754217 0.20204452 0.49336195
4569 -0.69578713 -0.76259637 -0.20519821 -0.9197444 0.058580976 0.17094193 -0.14882939 0.0076652546 -0.1482601 0.74975455
1735 -0.33115909 -0.13210976 0.26888844 0.31886092 -0.40752527 1.3193533 -0.94131756 0.7798517 0.4597927 0.47366616
2625 -0.2144811 -0.35758892 0.5280009 -0.07127567 -0.0777982 0.06016165 -1.0658913 0.8652079 0.33653605 0.71071523
4892 -0.61425287 -0.40874884 -0.7163428 0.027164387 0.046237156 0.016082188 -0.51649404 0.16602984 0.7488381 0.0074279075
2963 -0.29369524 -0.56301296 -0.599549 -0.18431818 -0.25904077 0.80451494 -0.33219197 0.5226673 0.16471408 0.5530746
1853 -0.25969768 -0.34200478 0.4182004 0.42528185 -0.44772217 0.83636147 -1.19402 0.6826279 0.41807356 0.4235691
2649 -0.1305163 -0.2633749 0.28178895 0.24209763 -0.4072289 0.57659674 -1.1723369 0.96751875 0.25483206 0.21165267
2001 -0.7281123 -0.29742604 0.36696032 -0.21160264 0.33310306 -0.3640657 -1.0216953 0.86735594 0.1561443 0.5046983
1677 -0.25770053 -0.24442708 0.21202247 0.22266091 -0.095335655 1.1706331 -0.89012426 0.49014214 0.27483544 0.8179383
1519 -0.11162177 0.008671698 -0.053845186 -0.27315816 0.045290347 0.9865154 -0.39528054 1.3310707 0.51823705 0.80984735
790 -0.6530327 -0.93792874 -0.15866727 -0.707222 0.04177959 0.0638238 -0.2427187 -0.046356518 0.36241165 0.599645
2632 -0.15149331 -0.43672922 0.40976298 0.30633187 -0.24933892 0.51634276 -1.2672087 0.72514844 0.22601712 0.19552387
5017 -0.27356282 -0.14056833 -0.64676183 -0.5979338 -0.23622034 0.48710558 -0.49237552 0.04629351 0.35781854 -0.23151864
4808 -0.2910856 0.071687035 -0.5940041 -0.0422488 0.3377881 0.18577617 -1.3264862 0.14509372 -0.1193687 -0.71114147
745 0.05260247 -0.5747059 -0.6759347 -0.7379701 -0.49143264 0.6728225 -0.64734256 0.13959855 -0.4712751 -0.11884791
1587 -0.5913458 0.19543745 0.08646188 -0.1183633 -0.057792746 1.3504738 -0.40932813 0.740702 0.22743963 0.8298835
549 0.17366889 0.85813236 -0.08964189 -0.56370974 0.13457203 0.3658743 -0.91832083 0.5224461 0.5582671 0.43938386
1576 0.43999854 -0.2848193 0.27362862 -0.32498324 -0.06653845 0.812985 -1.0401224 0.6321058 0.4985576 1.064183
1392 0.053425677 -0.6936573 0.18932246 -0.20526259 0.953228 1.3122158 -0.5959701 0.7718736 0.14450124 0.27135745
1719 -0.22447175 -0.2797982 0.24462761 0.21757965 -0.095660664 1.1573075 -0.8805515 0.5967894 0.319287 0.76199865
